tree
version=v4
num_class=1
num_tree_per_iteration=1
label_index=0
max_feature_idx=97
objective=binary sigmoid:1
feature_names=Column_0 Column_1 Column_2 Column_3 Column_4 Column_5 Column_6 Column_7 Column_8 Column_9 Column_10 Column_11 Column_12 Column_13 Column_14 Column_15 Column_16 Column_17 Column_18 Column_19 Column_20 Column_21 Column_22 Column_23 Column_24 Column_25 Column_26 Column_27 Column_28 Column_29 Column_30 Column_31 Column_32 Column_33 Column_34 Column_35 Column_36 Column_37 Column_38 Column_39 Column_40 Column_41 Column_42 Column_43 Column_44 Column_45 Column_46 Column_47 Column_48 Column_49 Column_50 Column_51 Column_52 Column_53 Column_54 Column_55 Column_56 Column_57 Column_58 Column_59 Column_60 Column_61 Column_62 Column_63 Column_64 Column_65 Column_66 Column_67 Column_68 Column_69 Column_70 Column_71 Column_72 Column_73 Column_74 Column_75 Column_76 Column_77 Column_78 Column_79 Column_80 Column_81 Column_82 Column_83 Column_84 Column_85 Column_86 Column_87 Column_88 Column_89 Column_90 Column_91 Column_92 Column_93 Column_94 Column_95 Column_96 Column_97
feature_infos=[0:335] [20:169] [49:100] [30.649999618530273:40.900001525878906] [46:247] [22:284] [24:174] [1.5:55] [10:83] [-28:26] [5:55] [0:1] [6.6500000953674316:7.8000001907348633] [12:100] [29.100000381469727:100] [3:9840] [1:235] [11:3619] [1:16.200000762939453] [0.10000000149011612:25.100000381469727] [21:988] [0.40000000596046448:27] [0.20000000298023224:8.1999998092651367] [0.30000001192092896:16.899999618530273] [1.8999999761581421:10] [0.10000000149011612:46.599998474121094] [0.0099999997764825821:200] [9.6999998092651367:60.5] [3.2000000476837158:19.600000381469727] [16.600000381469727:249] [0.10000000149011612:180.39999389648438] [35:1383] [9:1092] [14:100] [0:1] [0:1] [0:1] [-5366.85986328125:23.989999771118164] [1:336] [1:120000] [0:1] [0:1] [0:1] [0:1] [0:1] [0:1] [0:1] [0:1] [0:1] [0:1] [0:1] [0:1] [0:1] [0:1] [0:1] [0:1] [0:1] [0:1] [0:1] [0:1] [0:1] [0:1] [0:1] [0:1] [-103:97.5] [-42.5:63] [-5.8899998664855957:11.029999732971191] [-119:139] [-235:218] [-47.5:35] [-23.200000762939453:20.979999542236328] [-348.60000610351562:157.39999389648438] [-25.799999237060547:23.100000381469727] [0:335] [-121.5:89] [-118:120] [-32:40] [-23.299999237060547:22.200000762939453] [0:1] [0:1] [0:1] [0:1] [0:1] [0:1] [0:6] [0:2] [0:3] [0:3] [0:2] [0:9] [0:3] [0:3] [0:3] [0:3] [0:12] [-8:8] [-7:8] [-12:12]
tree_sizes=5159 5838 5920

Tree=0
num_leaves=47
num_cat=0
split_feature=38 50 37 37 0 39 35 39 40 38 38 38 52 39 35 38 0 37 37 39 38 0 39 35 35 38 49 35 49 37 37 33 39 33 37 39 39 53 39 33 38 39 39 37 39 39
split_gain=6.00289e+06 716943 498951 433802 211929 232473 164835 132673 109145 103493 94332.1 92611.6 83487.7 70867.6 56877.8 47573.1 33187.5 54314.1 32270.4 30998.8 28403.7 23570 19286.1 17438.7 14162.7 13601.9 12086 10309.5 10262.3 11407.1 10021 6328.9 6095.43 5973.33 5905.61 5454.06 4523.87 3742.39 2951.42 2924.38 1552.13 2099.73 1108.34 1087.4 534.361 442.988
threshold=53.500000000000007 1.0000000180025095e-35 -1.064999997615814 -124.35499954223631 9.5000000000000018 101518.50000000001 1.0000000180025095e-35 20593.500000000004 1.0000000180025095e-35 42.500000000000007 16.500000000000004 58.500000000000007 1.0000000180025095e-35 100584.50000000001 1.0000000180025095e-35 46.500000000000007 13.500000000000002 -0.49500000476837153 -273.23500061035151 100109.50000000001 4.5000000000000009 4.5000000000000009 100422.50000000001 1.0000000180025095e-35 1.0000000180025095e-35 8.5000000000000018 1.0000000180025095e-35 1.0000000180025095e-35 1.0000000180025095e-35 -2.0449999570846553 -0.054999999701976769 75.875000000000014 10577.500000000002 27.005000114440922 -3.9850000143051143 117058.50000000001 104793.50000000001 1.0000000180025095e-35 3160.5000000000005 66.99499893188478 84.500000000000014 108686.50000000001 15146.500000000002 -343.25498962402338 16405.500000000004 16881.500000000004
decision_type=2 2 10 8 2 2 8 2 2 2 2 2 2 2 10 2 2 10 10 2 2 2 2 10 8 2 2 10 2 10 10 2 2 2 10 2 2 2 2 2 2 2 2 10 2 2
left_child=1 6 3 7 5 20 13 10 23 -10 -3 28 24 18 -9 -14 17 -15 39 44 -4 -20 27 -5 -6 -7 -21 30 -2 33 -8 42 -29 -30 37 -18 -35 -24 -33 -1 43 -42 -31 -28 -13 -46
right_child=11 2 4 8 12 25 22 14 9 -11 -12 19 15 16 -16 -17 35 -19 21 26 -22 -23 34 -25 -26 -27 40 32 29 31 -32 38 -34 36 -36 -37 -38 -39 -40 -41 41 -43 -44 -45 45 -47
leaf_value=-3.5393912434022345 -3.5130482400435343 -3.626058596250648 -3.795601799369464 -3.7080092364119737 -3.7716607497715433 -3.5752967548030172 -3.6741075517684312 -3.8199630350864435 -3.8546121418305455 -3.768846012316577 -3.7476227533509396 -3.4848132452856087 -3.784059788823368 -3.8560109013375015 -3.7151942337507315 -3.6938679596185504 -3.5552386658467245 -3.4975140091352976 -3.9092135612375891 -3.4594908022859645 -3.7206827526635364 -3.7904218792704465 -3.5787316079973661 -3.5387919118929876 -3.610686547812135 -3.6629371825081205 -3.614022107316186 -3.6352567315878241 -4.0052020431232807 -3.5419327970574095 -3.6264740543950662 -4.0020180249743831 -3.5840058736197067 -3.6240617588473523 -3.5191566271717005 -3.753089250795143 -3.6958921019434574 -3.7088131914414224 -3.6720948971379088 -3.7010673626120822 -3.5112312265681798 -3.5352768282414737 -3.5923246733612584 -3.5419812616074586 -3.5388050384388596 -3.4957264190867363
leaf_weight=44.592570368200541 125.59733922034502 1324.8475187532604 768.68850760534406 260.63658124767244 72.084918627515435 1439.5105605386198 899.20744566246867 1928.7774749454111 16591.626022361219 1632.1789883580059 1387.407948711887 4988.3106466922909 7932.1248969398439 148.00666403397918 768.10099780932069 673.85706706345081 228.41227407939732 63.855093497782946 248.09372119419277 304.61821094714105 1842.5289022717625 625.80585057102144 125.31301490776241 89.69728228636086 391.96248401887715 234.83583098091185 51.681198257952929 526.71374196745455 4.891834804788231 223.10731158778071 1152.5703033152968 2.8609286583960047 626.35574539750814 299.64833450317383 233.27808651141822 18.939699390903115 172.18279675580561 38.37070095911622 54.022451089695096 24.715124687179923 1135.7345834542066 1529.428340530023 174.9841463919729 1024.828885467723 128.92060858756304 1270.3224131129682
leaf_count=488 1108 26291 27713 7200 2420 21580 21970 74051 692052 54683 43664 31691 277347 6183 21783 17733 2963 453 11636 1167 53246 22249 1896 1005 7185 5471 943 10902 277 2609 22915 162 9897 5871 2220 590 4550 1047 1290 649 10061 17076 2886 12090 1457 9373
internal_value=-3.71988 -3.77637 -3.79185 -3.81988 -3.74154 -3.68198 -3.66093 -3.73893 -3.84346 -3.84692 -3.68817 -3.51173 -3.7697 -3.75563 -3.79006 -3.77697 -3.65089 -3.74675 -3.80684 -3.50239 -3.74268 -3.82403 -3.62411 -3.66391 -3.63532 -3.58745 -3.52523 -3.63276 -3.60407 -3.61667 -3.64724 -3.57861 -3.6072 -3.65351 -3.55506 -3.56967 -3.64981 -3.60793 -3.68895 -3.5937 -3.53067 -3.52492 -3.56339 -3.5452 -3.48798 -3.49948
internal_weight=53834.2 42343.1 37338.9 23983.3 13355.6 4285.56 5004.23 5409.13 18574.1 18223.8 2712.26 11491.1 9070.03 1402.42 2696.88 8605.98 459.214 211.862 943.207 10433.8 2611.22 873.9 3601.81 350.334 464.047 1674.35 4046.29 3204.85 1057.3 931.698 2051.78 454.975 1153.07 476.723 396.962 247.352 471.831 163.684 56.8834 69.3077 3741.67 2665.16 398.091 1076.51 6387.55 1399.24
internal_count=1552093 1449482 1333424 920729 412695 108010 116058 165789 754940 746735 69955 102611 304685 45211 95834 295080 10189 6636 35022 83858 80959 33885 70847 8205 9605 27051 41337 65684 18753 17645 44885 6947 20799 10698 5163 3553 10421 2943 1452 1137 40170 27137 5495 13033 42521 10830
is_linear=0
shrinkage=1


Tree=1
num_leaves=53
num_cat=0
split_feature=38 37 37 38 37 52 38 38 37 37 38 37 52 0 37 37 37 38 38 33 0 52 33 33 37 37 33 33 33 37 33 37 33 33 37 37 0 37 52 33 33 38 38 33 0 37 37 37 37 33 33 37
split_gain=2.03831e+06 308453 256063 110002 81200.2 68720.4 53643.4 45494.3 44651.2 43635.4 42617.6 40359.5 32595.8 29690.8 29397.2 25082.9 23304.1 25517.7 22988.7 20929.4 16277.9 14976.1 17059.3 13842.5 13778.3 10266.8 10172.5 5224.86 5124.4 9041.38 4880.14 6247.83 4687.27 6007.85 4524.91 8545.42 4390.52 3738.52 2668.41 2641.53 2595.34 3828.78 2397.41 2241.51 1793.89 1514.84 2891.79 1160.43 3441.46 986.919 544.567 203.246
threshold=50.500000000000007 -0.074999999254941926 -38.079999923706048 11.500000000000002 -2.6350001096725459 1.0000000180025095e-35 22.500000000000004 8.5000000000000018 -583.20001220703114 -243.19499969482419 56.500000000000007 -0.1649999991059303 1.0000000180025095e-35 43.500000000000007 1.0000000180025095e-35 -2.1350001096725459 -1.0000000180025095e-35 40.500000000000007 42.500000000000007 66.99499893188478 5.5000000000000009 1.0000000180025095e-35 25.010000228881839 78.204998016357436 2.529999971389771 1.0000000180025095e-35 61.764999389648445 80.005001068115249 72.83499908447267 -0.014999999664723871 74.005001068115249 -1.9650000333786009 34.004999160766609 28.005000114440922 -0.03499999921768903 -60.51499938964843 3.5000000000000004 -380.44999694824213 1.0000000180025095e-35 27.005000114440922 25.010000228881839 41.500000000000007 59.500000000000007 45.004999160766609 53.500000000000007 -343.25498962402338 -670.45498657226551 -3.9150000810623165 -9.7950000762939435 71.43500137329103 83.645000457763686 -2.4950000047683711
decision_type=2 10 8 2 10 2 2 2 10 10 2 10 2 2 10 10 10 2 2 2 2 2 2 2 10 10 2 2 2 10 2 10 2 2 10 10 2 10 2 2 2 2 2 2 2 10 8 10 10 2 2 10
left_child=1 2 3 8 5 20 14 15 27 19 28 -9 40 -11 21 -6 17 -14 -7 -5 -4 36 -23 -10 -16 -18 -26 -1 32 30 31 -30 33 39 35 -34 -3 -32 -12 -2 41 -8 45 -42 -35 46 -40 48 -44 -36 -47 -49
right_child=10 6 4 9 7 18 12 11 23 13 38 -13 16 -15 24 -17 25 -19 -20 -21 -22 22 -24 -25 26 -27 -28 -29 29 -31 37 -33 34 44 49 -37 -38 -39 42 -41 43 -43 47 -45 -46 50 -48 51 -50 -51 -52 -53
leaf_value=0.32822813968851011 0.19433346072700952 0.21549193662370733 0.13456861636298367 0.23302733418434704 0.10783173087357295 0.11230566275878481 -0.0077101180767548023 0.16736168301269613 0.20977732872503874 0.15075154525679257 0.31885744977413394 0.056230803172395552 0.1753764333901873 0.22705102932125865 -0.010144385510303867 0.24691820235404408 0.14070139322312733 0.22582479864658034 0.16238895613037668 0.1693380384251699 0.22980123048731152 0.15129628152862223 0.22510315247128501 0.25474642543253545 0.29838451636687136 0.012239861876834011 -0.0087475727069525194 0.088356813929771932 -0.0090530207822304126 -0.0088001654769598661 -0.0060525666288668749 0.24951316494235257 0.29225315513579192 -0.008804428233834526 0.28764804617781775 0.22703536829356699 0.27431969886804491 0.2465282018697714 0.26511345348152821 0.34383993553007741 0.30440467757986445 0.27664558043282028 0.30372035147591203 0.25099942394176539 0.16732784543177975 0.28795072536762306 -0.0060379505099094786 0.32198569467562271 0.28060386885183697 0.34527362433862702 0.22455367427835266 0.30712337265678713
leaf_weight=472.77334341965616 48.594543367624283 180.4476572740823 262.1337658520788 1422.2606615219265 160.39543104730546 12936.240556363016 9.903633279725911 2458.4419142119586 3642.0040168836713 6592.5996556207538 1647.0128915850073 402.44688560068607 4089.8764057122171 589.44635208696127 81.965734688565135 1009.9726046342403 733.56797032617033 1446.6418240983039 1050.1161231826991 903.47815064899623 727.35074749961495 349.29877969808877 9537.7488691620529 929.48830605857074 35.659088572487235 72.615472076460719 16.308201659470797 10.575960028916596 19.667767960578203 16.573768347501755 6.0544660389423361 18.749653417617083 384.56976456940174 16.683948265388612 492.0394622348249 532.78767054155469 849.74758995324373 442.17322875000536 11.551790820434688 19.931894961744547 127.54700101912022 9.1123161781579238 6450.7811534404755 486.03710603713989 8.7704976592212898 673.73278568871319 6.0068110059946802 441.1282257642597 919.87409072928131 56.09460462257266 30.342590497806668 7149.4006519149989
leaf_count=4185 1068 3818 8586 29335 5983 477881 394 73312 88272 206684 5341 15507 111351 12979 3756 17218 22612 30750 29751 24125 15391 9606 196309 17880 449 3164 746 327 851 686 259 261 5122 710 5343 10131 11044 7733 112 130 1182 90 34580 7245 190 6176 240 1601 7064 261 476 33826
internal_value=0.209953 0.176214 0.157805 0.190215 0.132967 0.121939 0.210488 0.173907 0.228961 0.169601 0.299711 0.151752 0.188113 0.157035 0.224598 0.227941 0.18105 0.188585 0.116074 0.208345 0.204691 0.226455 0.222507 0.218957 0.0727306 0.129177 0.202539 0.323142 0.255255 0.225398 0.233423 0.118404 0.264785 0.190886 0.26943 0.254572 0.264168 0.243061 0.304992 0.240724 0.258651 0.131579 0.303523 0.262421 0.0533979 0.282905 0.173878 0.304504 0.300861 0.293953 0.285442 0.308015
internal_weight=70988.7 51596.2 33569.7 14562.6 19007.1 14975.8 18026.5 4031.26 5054.84 9507.78 19392.5 2860.89 6975.3 7182.05 11051.2 1170.37 6342.7 5536.52 13986.4 2325.74 989.485 10917.2 9887.05 4571.49 133.933 806.183 51.9673 483.349 2062.69 503.219 486.645 38.4174 1559.47 93.9809 1465.49 917.357 1030.2 448.228 17329.8 68.5264 632.6 19.0159 15682.8 613.584 25.4544 721.634 17.5586 14961.2 7370.66 548.134 704.075 7590.53
internal_count=1552093 1429932 1027416 383787 643629 531609 402516 112020 110664 273123 122161 88819 176788 219663 225728 23201 167877 142101 507632 53460 23977 220777 205915 106152 4951 25776 1195 4512 32745 9790 9104 1112 22955 2098 20857 15253 14862 7992 89416 1198 8911 484 84075 8427 900 7004 352 77071 41644 5604 6652 35427
is_linear=0
shrinkage=0.0102689


Tree=2
num_leaves=54
num_cat=0
split_feature=73 50 37 37 73 39 73 39 39 37 37 73 73 39 37 37 37 37 40 73 73 37 39 49 37 37 37 39 39 33 39 33 39 39 39 37 33 37 51 37 73 73 73 39 33 33 73 39 33 33 33 39 33
split_gain=999258 228751 154540 167658 67911.7 70977.1 67637.4 74750.7 45174.4 42885.2 28060.8 27033 26155.7 24891.4 31050.2 21923.1 17750.8 15155.4 10177.6 9897.73 9724.92 7175.65 7314.52 6495.3 4258.45 4071.59 6915.8 4742.69 3516.12 2947.99 9226.41 4214.42 3928.58 3626.43 3562.48 2989.36 1962.53 2559.57 1690.18 1669.51 3434.96 1216.09 1532.15 1210.39 1138.3 793.271 935.233 628.613 781.268 1088.34 538.119 437.315 433.719
threshold=47.500000000000007 1.0000000180025095e-35 -1.514999985694885 -38.079999923706048 12.500000000000002 18897.500000000004 12.500000000000002 20593.500000000004 101360.00000000001 -2.6350001096725459 -146.81500244140622 3.5000000000000004 55.500000000000007 16405.500000000004 -1.0000000180025095e-35 -0.074999999254941926 -7.6549999713897696 -1.0000000180025095e-35 1.0000000180025095e-35 1.0000000180025095e-35 8.5000000000000018 -1.514999985694885 19200.500000000004 1.0000000180025095e-35 -50.56500053405761 -124.35499954223631 -0.074999999254941926 6170.5000000000009 18460.500000000004 37.73500061035157 111237.50000000001 61.995000839233406 17051.500000000004 111718.50000000001 112361.50000000001 -408.27999877929682 88.005001068115249 -4.6349999904632559 1.0000000180025095e-35 -10.034999847412108 15.500000000000002 196.50000000000003 144.50000000000003 2516.5000000000005 54.875000000000007 62.495000839233406 62.500000000000007 109154.50000000001 48.354999542236335 74.215000152587905 38.774999618530281 14375.500000000002 64.49499893188478
decision_type=2 2 10 8 2 2 2 2 2 10 10 2 2 2 10 10 8 10 2 2 2 10 2 2 10 10 10 2 2 2 2 2 2 2 2 10 2 10 2 10 2 2 2 2 2 2 2 2 2 2 2 2 2
left_child=1 11 3 6 5 17 7 -3 16 -10 -8 19 23 14 -6 -15 -5 -4 39 36 -7 24 -23 47 -21 27 -27 -20 45 30 32 33 -25 -31 -32 -33 37 -1 -30 40 -13 42 -40 -41 -43 -14 51 48 50 -50 -2 -47 -48
right_child=12 2 4 8 13 20 10 -9 9 -11 -12 18 28 15 -16 -17 -18 -19 25 21 -22 22 -24 29 -26 26 -28 -29 38 31 34 35 -34 -35 -36 -37 -38 -39 41 43 -42 44 -44 -45 -46 46 52 -49 49 -51 -52 -53 -54
leaf_value=0.0084361190938118408 0.0664186693555575 0.20715502848105391 0.15800320081489216 0.13844857104793298 0.15970887244505344 0.22057575590010381 0.15128865889287232 0.13585523037104447 0.081273308034897171 0.15031630333231319 0.1140771915385984 0.18732786503634863 0.23450977160241929 0.0763222922759655 0.016597666850141798 0.13599934126883761 0.10474632328934771 0.037977787488873482 0.25313098526575911 0.1645822306001726 0.17905001230588552 0.15892814919923681 0.24872635378149019 0.13814859065238075 0.10490074324738553 0.17953422439481831 0.20535882945489337 0.20074393816302982 0.23667652891818552 0.21584281245073797 0.30507674216998848 0.071418339737004524 0.014110068721137672 0.16620641894594404 0.16276298613454354 0.18484361654999068 0.24729076316359419 0.098247254028980421 0.22098038784405064 0.17186011159915043 0.23863949418721006 0.21260467851950343 0.20684102338801694 0.24182544913872583 0.23699380433987546 0.21740765816399837 0.21599142432260884 0.27053414642045975 0.24463445690979757 0.18479874418330991 0.19012129331567593 0.18187700509431831 0.23025485893396602
leaf_weight=57.618655564263463 6.4649029094725874 3488.8941201753914 4682.8848561011255 3639.2640927303582 6987.6825397759676 3426.4872674159706 3955.9842447843403 2806.7450119778514 8967.453473361209 1062.60598086752 4701.8967717830092 288.33985390514135 5087.5890097040683 793.29294824786484 164.13489086739719 3691.5975260902196 3054.3132016230375 114.60057989507914 307.65474559366703 271.41198202781379 750.4706924110651 257.30663117021322 161.48828781582415 70.914164068177342 251.84659532085061 1960.8391992375255 2725.588352477178 540.59889223799109 940.04049967974424 1123.5423461794853 40.212051253765821 26.558319058269262 44.14487455226481 199.13080635294318 41.364592617377639 1643.3345903046429 5.8661155961453906 81.701561668887734 6924.6732578966767 36.193693546578288 318.81700888648629 368.50351332500577 1169.6966764219105 847.85492432117462 1045.3298474214971 495.93418438173831 461.91195096448064 77.124745298177004 232.18162140995264 53.837945247069001 18.874754162505269 75.034636637195945 6168.8315658047795
leaf_count=2271 151 50189 93290 104905 147797 32563 88169 69176 314318 27717 138969 5083 13708 25703 6421 88915 97135 3922 2702 4945 14026 4384 707 1291 7439 35341 31807 7268 1893 12218 143 774 1495 3460 786 24556 39 2193 35576 551 2982 2092 7251 6113 3402 2453 2068 179 1200 630 173 631 18923
internal_value=0.169898 0.146885 0.139008 0.124758 0.160903 0.182156 0.149749 0.175387 0.102407 0.0885986 0.131092 0.197634 0.222713 0.144503 0.156429 0.12546 0.123084 0.155146 0.205034 0.149712 0.213147 0.161905 0.193912 0.196716 0.136053 0.198495 0.194583 0.219935 0.226798 0.191733 0.151382 0.194346 0.0910765 0.208465 0.234888 0.18308 0.0701044 0.0614642 0.222176 0.229197 0.214516 0.220725 0.218955 0.239104 0.230745 0.230715 0.228012 0.237204 0.228377 0.233857 0.161697 0.212972 0.229284
internal_weight=86716.7 60401.4 52288.3 31677.2 20611.2 8974.44 14953.5 6295.64 16723.6 10030.1 8657.88 8113.13 26315.2 11636.7 7151.82 4484.89 6693.58 4797.49 7025.89 1087.24 4176.96 942.053 418.795 3577.69 523.259 5534.68 4686.43 848.254 22737.5 3189.2 196.636 2992.57 115.059 1322.67 81.5766 1669.89 145.186 139.32 10448.2 1491.21 607.157 9508.2 8094.37 884.049 1413.83 12289.3 7201.71 388.484 311.359 286.02 25.3397 570.969 6630.74
internal_count=1552093 1417040 1303215 890578 412637 143801 346503 119365 544075 342035 227138 113825 135053 268836 154218 114618 202040 97212 91847 21978 46589 17475 5091 47056 12384 77118 67148 9970 87997 44723 3715 41008 2786 15678 929 25330 4503 4464 50214 14729 8065 48321 42827 6664 5494 37783 24075 2333 2154 1830 324 3084 20991
is_linear=0
shrinkage=0.0102689


end of trees

feature_importances:
Column_37=44
Column_39=27
Column_33=26
Column_38=17
Column_73=11
Column_0=7
Column_35=5
Column_52=5
Column_49=3
Column_40=2
Column_50=2
Column_51=1
Column_53=1

parameters:
[boosting: gbdt]
[objective: binary]
[metric: binary_logloss]
[tree_learner: serial]
[device_type: cpu]
[data_sample_strategy: bagging]
[data: ]
[valid: ]
[num_iterations: 625]
[learning_rate: 0.0102689]
[num_leaves: 98]
[num_threads: 4]
[seed: 42]
[deterministic: 0]
[force_col_wise: 0]
[force_row_wise: 0]
[histogram_pool_size: -1]
[max_depth: 6]
[min_data_in_leaf: 75]
[min_sum_hessian_in_leaf: 0.001]
[bagging_fraction: 0.912099]
[pos_bagging_fraction: 1]
[neg_bagging_fraction: 1]
[bagging_freq: 0]
[bagging_seed: 400]
[bagging_by_query: 0]
[feature_fraction: 0.651989]
[feature_fraction_bynode: 1]
[feature_fraction_seed: 30056]
[extra_trees: 0]
[extra_seed: 12879]
[early_stopping_round: 0]
[early_stopping_min_delta: 0]
[first_metric_only: 0]
[max_delta_step: 0]
[lambda_l1: 2.28746]
[lambda_l2: 0.590225]
[linear_lambda: 0]
[min_gain_to_split: 0]
[drop_rate: 0.1]
[max_drop: 50]
[skip_drop: 0.5]
[xgboost_dart_mode: 0]
[uniform_drop: 0]
[drop_seed: 17869]
[top_rate: 0.2]
[other_rate: 0.1]
[min_data_per_group: 100]
[max_cat_threshold: 32]
[cat_l2: 10]
[cat_smooth: 10]
[max_cat_to_onehot: 4]
[top_k: 20]
[monotone_constraints: ]
[monotone_constraints_method: basic]
[monotone_penalty: 0]
[feature_contri: ]
[forcedsplits_filename: ]
[refit_decay_rate: 0.9]
[cegb_tradeoff: 1]
[cegb_penalty_split: 0]
[cegb_penalty_feature_lazy: ]
[cegb_penalty_feature_coupled: ]
[path_smooth: 0]
[interaction_constraints: ]
[verbosity: -1]
[saved_feature_importance_type: 0]
[use_quantized_grad: 0]
[num_grad_quant_bins: 4]
[quant_train_renew_leaf: 0]
[stochastic_rounding: 1]
[linear_tree: 0]
[max_bin: 255]
[max_bin_by_feature: ]
[min_data_in_bin: 3]
[bin_construct_sample_cnt: 200000]
[data_random_seed: 175]
[is_enable_sparse: 1]
[enable_bundle: 1]
[use_missing: 1]
[zero_as_missing: 0]
[feature_pre_filter: 1]
[pre_partition: 0]
[two_round: 0]
[header: 0]
[label_column: ]
[weight_column: ]
[group_column: ]
[ignore_column: ]
[categorical_feature: ]
[forcedbins_filename: ]
[precise_float_parser: 0]
[parser_config_file: ]
[objective_seed: 16083]
[num_class: 1]
[is_unbalance: 0]
[scale_pos_weight: 54.6067]
[sigmoid: 1]
[boost_from_average: 1]
[reg_sqrt: 0]
[alpha: 0.9]
[fair_c: 1]
[poisson_max_delta_step: 0.7]
[tweedie_variance_power: 1.5]
[lambdarank_truncation_level: 30]
[lambdarank_norm: 1]
[label_gain: ]
[lambdarank_position_bias_regularization: 0]
[eval_at: ]
[multi_error_top_k: 1]
[auc_mu_weights: ]
[num_machines: 1]
[local_listen_port: 12400]
[time_out: 120]
[machine_list_filename: ]
[machines: ]
[gpu_platform_id: -1]
[gpu_device_id: -1]
[gpu_use_dp: 0]
[num_gpu: 1]

end of parameters

pandas_categorical:null
