{"learner":{"attributes":{"best_iteration":"19","best_score":"0.3998878070449668","scikit_learn":"{\"_estimator_type\": \"classifier\"}"},"feature_names":[],"feature_types":[],"gradient_booster":{"model":{"cats":{"enc":[],"feature_segments":[],"sorted_idx":[]},"gbtree_model_param":{"num_parallel_tree":"1","num_trees":"60"},"iteration_indptr":[0,1,2,3,4,5,6,7,8,9,10,11,12,13,14,15,16,17,18,19,20,21,22,23,24,25,26,27,28,29,30,31,32,33,34,35,36,37,38,39,40,41,42,43,44,45,46,47,48,49,50,51,52,53,54,55,56,57,58,59,60],"tree_info":[0,0,0,0,0,0,0,0,0,0,0,0,0,0,0,0,0,0,0,0,0,0,0,0,0,0,0,0,0,0,0,0,0,0,0,0,0,0,0,0,0,0,0,0,0,0,0,0,0,0,0,0,0,0,0,0,0,0,0,0],"trees":[{"base_weights":[-4.3629403E-3,-3.989601E-1,1.4216963E0,-6.203332E-1,-5.6398522E-2,8.0637795E-1,1.4987341E0,-5.638557E-2,-7.988302E-1,6.422815E-1,-1.7435318E-1,6.3094854E-1,1.1182233E0,1.724406E0,1.4728723E0,2.752045E-1,-4.4333324E-1,3.7407213E-1,-8.484916E-1,5.368969E-1,1.3931863E0,2.7893627E-1,-3.649518E-1,1.3460611E0,5.735382E-1,1.6917509E0,1.01726E0,9.3792486E-1,1.7287318E0,1.591332E0,1.2933674E0,6.317908E-1,-1.00088954E-1,-6.3063794E-1,4.4240203E-2,6.689631E-2,1.2866237E0,-6.018187E-1,-1.0139382E0,-3.9179492E-1,6.4055896E-1,1.5685066E0,9.2653984E-1,-1.9476083E-1,9.2709166E-1,5.042147E-1,-4.1035298E-1,8.2461405E-1,1.601305E0,3.834588E-1,8.007674E-1,8.709211E-2,1.7180897E0,7.797698E-1,1.2436945E0,1.8597703E-1,6.7127366E-3,1.4885983E0,1.7437557E0,1.615755E0,1.5031108E0,1.392371E0,1.2474319E0,5.2644406E-2,7.8457546E-1,-6.8110085E-1,6.453544E-2,-7.415842E-1,2.1359475E-1,6.268972E-1,-3.4220192E-1,-8.149358E-1,3.054923E-1,1.6785716E-1,1.3170592E0,-1.179004E0,-2.9516974E-1,-1.0880197E0,-4.810907E-1,-1.5239145E-1,-1.8105854E0,5.0303362E-2,7.1779746E-1,-1.332313E-4,1.5900112E0,2.010768E-1,1.2742785E0,-9.8951256E-1,-1.2370195E-1,1.3638306E0,8.310815E-1,-4.206067E-1,7.020598E-1,-4.682893E-1,2.975933E-1,1.72477E0,2.7376232E-1,1.408501E0,1.8163005E0,5.716339E-1,-8.562517E-2,7.769769E-1,1.9116536E0,1.8920931E0,1.6564575E0,8.2658505E-1,-9.0245056E-1,1.409105E0,9.196333E-1,1.5909027E0,-3.203546E-2,1.1051533E0,1.7473029E0,1.605017E0,1.7264447E0,1.4083025E0,1.5874856E0,1.351183E0,1.5590706E0,1.1378206E0,1.3775481E0,6.8260825E-1,-4.6658587E-1,1.0141155E0,5.380586E-1,-9.076736E-1,5.021071E-1,1.5396212E-1,-6.3411784E-1,-8.445792E-1,3.5298127E-1,1.7102401E0,8.724965E-2,8.0019397E-1,-2.1597715E-1,-1.1958412E0,-1.3450429E-1,-1.4129783E0,1.6595116E-1,1.12707354E-1,7.2027487E-1,9.104952E-2,-2.6127694E-2,1.2429965E0,1.6583905E0,-1.2144521E0,-6.0692552E-2,-1.1726658E-2,-5.840948E-1,3.4260195E-1,-1.1035486E0,-2.1602648E-1,-4.3459347E-1,-2.9172936E-1,1.3226057E0,-2.1600696E-1,9.104952E-2,-1.1731265E0,2.2878627E-1,5.242519E-1,8.3380395E-1,1.5346805E0,1.8473388E0,5.4777724E-1,-2.155507E-1,2.3615631E-1,1.5155232E0,-1.3838899E0,-3.743322E-1,-4.658965E-1,1.3357443E-2,1.0950794E0,1.6027808E0,8.7854373E-1,3.0255902E-1,-1.0394475E0,3.299055E-1,9.746705E-1,4.5720944E-1,-2.9831237E-1,-6.1606514E-1,4.053184E-1,-7.3184043E-1,2.104354E-1,1.543727E-1,1.25249E0,-9.646915E-1,8.842476E-3,1.5981606E0,1.870058E0,1.6639882E-1,-3.3652842E-1,6.6407883E-1,1.7490697E-1,-1.4152672E0,9.265513E-1,1.07071996E-1,1.9295625E-1,2.1564244E-1,1.7270954E-1,1.9553467E0,1.7314636E0,1.3618428E0,1.7251406E0,7.8026026E-1,-2.1549983E-1,9.104952E-2,1.5237974E0,8.303489E-1,-2.1522403E-1,1.0152181E0,3.0014968E-2,1.6488595E0,7.2232336E-2,1.4863886E-1,1.8042002E0,1.6995709E0,1.583829E0,1.6653767E0,1.7806875E0,1.6107403E0,-2.1529858E-1,1.4225966E0,1.2247713E0,1.623906E0,-2.1565561E-1,1.3670855E0,1.7250998E0,1.4029826E0,1.1704477E0,-6.2070674E-1,-2.158755E-1,1.40527E0,9.7602206E-1,-8.72294E-1,-1.6111245E0,3.2096054E-2,1.1105376E0,4.3227267E-1,1.4243703E0,3.4923452E-1,-7.274359E-2,-1.0655961E0,-2.158234E-1,8.74953E-1,-4.8493057E-1,2.3454577E-1,-3.870229E-1,-2.1598764E-1,-6.164277E-1,-1.1263185E0,-7.5843686E-1,1.4803712E0,1.8037657E0,1.4036334E-1,-2.5721145E-1,7.988386E-1,-2.1588883E-1,8.9931256E-1,-2.1604349E-1,6.4111096E-1,1.8388799E-1,-9.123059E-1,7.659295E-2,-1.6581103E0,4.3118283E-1,-2.1571662E-1,1.9093925E-1,-1.5878942E0,-1.5789552E-1,9.8589855E-1,1.39559E0,-1.6039829E-1,7.057425E-1,1.7911252E0,-1.169182E0,-1.6714592E0,-2.159092E-1,2.598732E-1,3.6911476E-1,-4.4360068E-1,2.799862E-1,-7.3727816E-1,-2.9739985E-1,1.1067537E0,-8.4650135E-1,-1.1895401E0,-6.418155E-1,-8.32749E-2,-4.1639733E-1,1.2363067E0,1.8118625E0,6.41548E-1,-1.6823143E0,-2.1670532E-1,2.9623032E-1,-2.1574165E-1,2.6932526E-1,7.891517E-1,-3.1247684E-1,8.886644E-1,1.8232267E0,1.4467633E0,1.1070433E-1,2.095769E-1,8.2461405E-1,-2.1523413E-1,-1.020252E0,2.0787872E-1,1.7074596E0,1.0612824E0,-1.7496272E0,-9.020881E-1,-6.235244E-2,-2.1592425E-1,-1.536155E0,-4.2247215E-1,-9.8237073E-1,5.0051253E-2,1.1945577E0,-2.1567667E-1,5.504272E-1,1.7108916E0,6.840989E-1,9.6194476E-1,-2.1553478E-1,3.707696E-1,-1.7796206E-1,-1.6023455E0,5.473193E-1,-2.1552218E-1,-2.5929767E-1,1.041516E0,5.159722E-1,-2.1570359E-1,-3.2462496E-1,1.017046E0,-8.538276E-1,-4.57087E-1,-7.959771E-1,4.8036763E-1,-2.158291E-1,-1.5590618E0,1.8847816E-1,3.5272863E-2,-2.155507E-1,9.104952E-2,4.359493E-2,1.7668844E0,2.1378191E-1,1.8089664E0,3.6095667E-1,-2.158458E-1,1.2162519E0,5.2836126E-1,-7.5167793E-1,3.8342243E-1,-2.1594843E-1,4.3398052E-1,2.1711525E-1,9.8302937E-1,3.2343653E-1,-2.1575505E-1,2.15911E-1,1.9295625E-1,1.3783475E0,1.8031802E0,6.8742245E-2,1.5549291E0,1.5730777E-1,2.0234084E-1,1.2611663E0,7.037E-1,1.2384269E0,1.6973059E0,-2.1542633E-1,1.2474358E0,6.069829E-1,1.1376791E0,1.1070433E-1,1.6933037E0,1.8559608E0,1.7290218E0,1.6704158E0,1.8460258E0,1.5661521E0,1.6885045E0,1.5933843E0,1.7160498E0,1.9670492E0,1.7602364E0,1.888438E0,1.4928865E0,1.4303323E0,-5.886147E-3,-2.1553886E-1,1.42718E0,1.7401966E0,1.5491216E0,8.8462913E-1,1.4082564E0,1.8498847E0,1.5839665E0,1.2640846E0,1.8509071E0,1.1352541E0,1.6890241E0,6.862201E-1,-2.159201E-1,1.4342483E0,2.4979074E-1,1.2393731E-1,-1.0305255E-1,1.5705116E-1,-2.1596435E-1,-1.21366225E-1,-2.1601588E-1,-2.1586986E-1,1.9347372E-2,-2.1544363E-1,1.216406E-1,-2.159846E-1,1.1789602E-1,-2.1561505E-1,1.675027E-1,5.37197E-2,-5.639413E-2,8.519107E-2,-7.862539E-2,-3.984531E-2,-1.3028048E-1,-2.1549037E-1,1.1566198E-1,2.674767E-2,-1.7761791E-1,8.8470384E-2,9.430686E-3,-9.564143E-2,2.4836628E-2,-2.0737249E-1,-5.468866E-2,1.21162996E-1,-1.253471E-1,9.602681E-3,-2.1601416E-1,1.7601852E-1,-2.1549037E-1,2.0342742E-1,1.6331969E-1,-2.1597144E-1,-1.1533101E-3,1.0821059E-1,-4.0151738E-2,1.07169785E-1,-2.1586265E-1,-2.1576203E-1,1.4565434E-1,-2.1582516E-1,2.657972E-2,-1.2209011E-1,9.796424E-2,1.5071285E-1,-1.1208421E-1,-1.8747272E-1,7.947556E-2,1.2696913E-1,-3.7129536E-2,2.6372682E-2,-2.1581523E-1,-2.1591742E-1,9.104952E-2,-2.1579608E-1,3.1154424E-2,-2.151459E-1,1.12295076E-1,-5.6803748E-2,1.5658683E-1,-2.158065E-1,1.4230917E-1,6.200958E-2,9.104952E-2,1.2989637E-1,2.0196556E-1,-1.5849003E-1,-1.1591889E-1,-1.956758E-1,4.4722036E-2,1.1182573E-1,-7.48574E-2,-2.1597841E-1,4.3783013E-2,1.0992551E-2,-8.735511E-2,3.864413E-2,-1.0204611E-1,-1.0916201E-1,-5.2839518E-2,-7.3528045E-4,-1.6072139E-1,4.9828745E-2,1.7360015E-1,-9.838321E-2,2.5633357E-2,-1.324674E-1,-6.3979916E-2,-8.65198E-2,-2.4168443E-2,1.5860202E-2,-1.3793752E-1,-7.0208035E-2,2.1840086E-2,-2.6127694E-2,1.9100806E-1,1.6331969E-1,2.1378191E-1,-1.6518904E-2,1.4863886E-1,-7.31531E-2,-2.1593781E-1,6.931032E-2,-2.1548553E-1,-1.8626194E-2,7.204716E-2,-2.0243146E-2,6.4449966E-2,8.7677814E-2,-2.1531522E-1,1.4764002E-1,-1.0656863E-1,1.0614707E-1,7.798614E-2,2.0486595E-1,1.819169E-1,1.16883E-1,1.6422993E-1,-6.5898634E-2,1.2889135E-1,-2.1557987E-1,7.580902E-2,1.353141E-1,1.9889343E-1,6.681297E-2,2.104354E-1,2.7467655E-2,-1.9733956E-1,-5.1585045E-2,-2.159453E-1,-2.1591361E-1,3.8837627E-2,-2.1597928E-1,3.8367014E-2,-5.1020745E-2,1.02469206E-1,-1.7296264E-1,1.1202802E-1,9.031136E-2,1.6462315E-4,1.605324E-1,6.2488362E-2,-2.157093E-1,1.9137184E-1,1.9272785E-1,1.3936627E-1,5.3422954E-2,1.0921708E-1,1.2372487E-1,4.9226087E-2,-2.1544363E-1,4.6712082E-2,5.2516565E-2,-1.3172509E-1,-9.617183E-2,-2.1597244E-1,2.1208156E-2,2.0804751E-1,-2.1542035E-1,4.7016475E-2,1.4915769E-1,8.912668E-2,5.9539523E-2,-2.154322E-1,-1.3298194E-1,-3.1663004E-2,-2.1519221E-1,1.1868568E-1,-1.3450289E-1,-6.628278E-2,-1.0997129E-1,-3.636111E-2,-1.1430698E-2,-2.1593907E-1,4.655425E-2,1.7523535E-1,-9.686589E-2,4.9496148E-2,-2.1597369E-1,-4.556699E-2,2.1193826E-1,1.6798843E-1,1.7722939E-1,2.0989932E-1,-2.1524398E-1,7.2104245E-2,1.5019313E-1,2.1398416E-2,6.743527E-2,-5.1879242E-2,-2.1581802E-1,6.6852923E-3,4.95218E-2,-2.1533115E-1,2.7467655E-2,6.8742245E-2,2.104354E-1,-2.6274968E-2,1.2605105E-1,7.9642214E-2,-2.1541426E-1,4.801299E-2,1.8617722E-1,6.8742245E-2,2.0026642E-1,1.8073516E-1,1.4583798E-1,1.8390232E-1,1.7589611E-1,1.03765875E-1,7.242602E-2,1.9554165E-1,1.525052E-1,8.107382E-3,1.5965852E-1,1.9165775E-1,1.961854E-1,9.588746E-2,1.252296E-1,-7.815008E-2,2.5720112E-3,1.299045E-1,7.947556E-2,1.8716668E-1,2.0121561E-1,1.714016E-1,1.8807417E-1,7.580902E-2,1.7893451E-1,2.0486595E-1,2.0103647E-1,1.5730777E-1,1.7701942E-1,1.6349337E-1,1.9097202E-1,1.6890046E-1,1.835138E-1,1.4551258E-1,1.7871825E-1,1.9438864E-1,1.9795129E-1,2.1545936E-1,1.5560272E-1,1.9194283E-1,1.5148343E-1,2.092433E-1,1.01792194E-1,1.8569066E-1,1.7852214E-1,1.4954744E-1,1.7104767E-1,6.512625E-2,1.8030003E-1,2.0228629E-1,7.921141E-2,1.6948558E-1,1.2963068E-1,-2.158171E-1,1.340702E-1,1.5950677E-1,1.9763608E-1,2.1581432E-1,1.328455E-1,1.851603E-1,1.504349E-1,1.6591593E-3,2.0496525E-1,1.8633737E-1,1.1579296E-1,1.4452097E-1,1.4588277E-1,2.0490085E-1,2.060372E-2,1.5848291E-1,1.6965258E-1,1.4492156E-1,-1.4512528E-1,1.0530083E-1],"categories":[],"categories_nodes":[],"categories_segments":[],"categories_sizes":[],"default_left":[0,1,0,0,0,0,0,0,0,0,0,0,0,0,0,0,1,1,0,0,0,0,0,0,0,0,0,0,0,0,0,0,0,0,0,0,0,0,0,0,0,0,0,0,0,0,0,0,0,0,0,0,0,0,0,0,0,0,0,0,0,0,0,0,0,0,0,0,0,0,0,0,0,0,0,0,0,0,0,0,0,0,0,0,0,1,0,1,0,0,0,0,0,0,0,0,0,0,0,0,0,0,0,0,0,0,0,0,0,0,0,0,0,1,0,0,0,0,0,0,0,0,0,0,0,0,0,0,0,0,0,0,0,0,0,0,0,0,0,0,0,0,0,0,0,0,0,0,0,0,0,0,0,0,0,0,0,0,0,0,0,0,0,0,0,0,0,0,0,0,0,0,0,0,0,0,0,0,0,0,0,0,0,0,0,0,0,0,0,0,0,0,0,0,0,0,0,0,0,0,0,0,0,0,0,0,0,0,0,0,0,0,0,0,0,0,0,0,0,0,0,0,0,0,0,0,0,0,0,0,0,0,0,0,0,0,0,0,0,0,0,0,0,0,0,0,0,0,0,0,0,0,0,0,0,0,0,0,0,0,0,0,0,0,0,0,0,0,0,0,0,0,0,0,0,0,0,0,0,0,0,0,0,0,0,0,0,0,0,0,0,0,0,0,0,0,0,0,0,0,0,0,0,0,0,0,0,0,0,0,0,0,0,0,0,0,0,0,0,0,0,0,0,0,0,0,0,0,0,0,0,0,0,0,0,0,0,0,0,0,0,0,0,0,0,0,0,0,0,0,0,0,0,0,0,0,0,0,0,0,0,0,0,0,0,0,0,0,0,0,0,0,0,1,0,0,0,0,0,0,0,0,0,0,0,0,0,0,0,0,0,0,0,0,0,0,0,0,0,0,0,0,0,1,0,0,0,0,0,0,0,0,0,0,0,0,0,0,0,0,0,0,0,0,0,0,0,0,0,0,0,0,0,0,0,0,0,0,0,0,0,0,0,0,0,0,0,0,0,0,0,0,0,0,0,0,0,0,0,0,0,0,0,0,0,0,0,0,0,0,0,0,0,0,0,0,0,0,0,0,0,0,0,0,0,0,0,0,0,0,0,0,0,0,0,0,0,0,0,0,0,0,0,0,0,0,0,0,0,0,0,0,0,0,0,0,0,0,0,0,0,0,0,0,0,0,0,0,0,0,0,0,0,0,0,0,0,0,0,0,0,0,0,0,0,0,0,0,0,0,0,0,0,0,0,0,0,0,0,0,0,0,0,0,0,0,0,0,0,0,0,0,0,0,0,0,0,0,0,0,0,0,0,0,0,0,0,0,0,0,0,0,0,0,0,0,0,0,0,0,0,0,0,0,0,0,0,0,0,0,0,0,0,0,0,0,0,0,0,0,0,0,0,0,0,0,0,0,0,0,0,0,0,0,0,0,0,0,0,0,0,0,0,0,0,0,0,0,0,0,0,0,0,0,0,0,0,0,0,0,0,0,0,0,0,0,0,0,0,0,0,0,0,0,0,0,0,0,0,0,0,0,0,0,0,0,0,0,0,0,0,0,0,0,0],"id":0,"left_children":[1,3,5,7,9,11,13,15,17,19,21,23,25,27,29,31,33,35,37,39,41,43,45,47,49,51,53,55,57,59,61,63,65,67,69,71,73,75,77,79,81,83,85,87,89,91,93,95,97,99,101,-1,103,105,107,-1,-1,109,111,113,115,117,119,121,123,125,127,129,131,133,135,137,139,141,143,145,147,149,151,153,155,157,159,-1,161,163,165,167,169,171,173,175,177,179,181,183,185,187,189,191,193,195,197,199,201,203,205,207,209,211,-1,213,215,217,219,221,223,225,227,229,231,233,235,237,239,241,243,245,247,249,251,253,255,257,-1,259,261,263,265,267,269,-1,-1,271,273,275,277,279,281,283,285,-1,287,289,291,-1,-1,293,295,297,299,301,303,305,-1,307,309,311,313,315,317,319,321,323,325,327,329,331,333,335,337,339,341,-1,-1,343,345,-1,347,349,-1,351,353,355,357,359,361,-1,-1,-1,363,365,367,369,371,-1,-1,373,375,-1,377,-1,379,-1,-1,381,383,385,387,389,391,-1,393,395,397,-1,399,401,403,405,407,-1,409,411,413,415,417,419,421,423,425,427,429,-1,431,433,435,437,-1,439,441,443,445,447,-1,449,451,-1,453,-1,455,457,459,461,463,465,-1,467,469,471,473,475,477,479,481,483,485,-1,487,489,491,493,495,497,499,501,503,505,507,509,511,513,515,517,519,521,-1,523,525,527,529,531,533,-1,-1,535,-1,537,-1,539,541,543,545,547,-1,549,551,553,555,557,-1,559,561,563,565,-1,567,569,571,573,-1,575,577,579,-1,581,583,585,587,589,591,593,595,-1,-1,-1,-1,-1,597,-1,599,601,-1,603,605,607,609,-1,611,613,615,617,-1,-1,-1,619,621,-1,623,-1,-1,625,627,629,631,-1,633,635,637,-1,639,641,643,645,647,649,651,653,655,657,659,661,663,665,-1,-1,667,669,671,673,675,677,679,681,683,685,687,689,-1,691,693,-1,-1,-1,-1,-1,-1,-1,-1,-1,-1,-1,-1,-1,-1,-1,-1,-1,-1,-1,-1,-1,-1,-1,-1,-1,-1,-1,-1,-1,-1,-1,-1,-1,-1,-1,-1,-1,-1,-1,-1,-1,-1,-1,-1,-1,-1,-1,-1,-1,-1,-1,-1,-1,-1,-1,-1,-1,-1,-1,-1,-1,-1,-1,-1,-1,-1,-1,-1,-1,-1,-1,-1,-1,-1,-1,-1,-1,-1,-1,-1,-1,-1,-1,-1,-1,-1,-1,-1,-1,-1,-1,-1,-1,-1,-1,-1,-1,-1,-1,-1,-1,-1,-1,-1,-1,-1,-1,-1,-1,-1,-1,-1,-1,-1,-1,-1,-1,-1,-1,-1,-1,-1,-1,-1,-1,-1,-1,-1,-1,-1,-1,-1,-1,-1,-1,-1,-1,-1,-1,-1,-1,-1,-1,-1,-1,-1,-1,-1,-1,-1,-1,-1,-1,-1,-1,-1,-1,-1,-1,-1,-1,-1,-1,-1,-1,-1,-1,-1,-1,-1,-1,-1,-1,-1,-1,-1,-1,-1,-1,-1,-1,-1,-1,-1,-1,-1,-1,-1,-1,-1,-1,-1,-1,-1,-1,-1,-1,-1,-1,-1,-1,-1,-1,-1,-1,-1,-1,-1,-1,-1,-1,-1,-1,-1,-1,-1,-1,-1,-1,-1,-1,-1,-1,-1,-1,-1,-1,-1,-1,-1,-1,-1,-1,-1,-1,-1,-1,-1,-1,-1,-1,-1,-1,-1,-1,-1,-1,-1,-1,-1,-1,-1,-1,-1,-1,-1,-1,-1,-1,-1,-1,-1,-1,-1,-1,-1,-1,-1,-1,-1,-1,-1,-1,-1,-1,-1,-1,-1,-1,-1,-1,-1,-1,-1],"loss_changes":[2.8830678E5,3.0432355E4,5.263625E3,2.4538633E4,1.2982798E4,6.759702E2,5.7603125E2,7.520007E3,1.0785625E4,1.8006943E3,1.1644525E4,3.2476E2,2.5764014E2,3.4390625E1,1.8827031E3,4.2238623E3,2.4701582E3,2.1084348E3,7.2497812E3,1.9211357E3,2.2903955E2,1.2249566E4,3.7443486E3,7.8145386E1,3.1618237E2,1.538501E1,2.0340259E2,3.820921E1,3.6367188E1,1.14953125E2,1.6008594E2,1.4319707E3,1.4710907E3,1.8304023E3,1.6904492E3,1.1842542E3,6.4315186E1,1.2622395E4,4.1970938E3,6.8068994E2,8.18272E2,6.89668E1,1.9291797E2,1.3018373E3,7.0642773E2,8.6204395E2,3.6986445E3,9.588861E1,1.634375E1,3.5204657E2,8.8288086E1,0E0,6.947998E0,1.4571606E2,1.0374707E2,0E0,0E0,1.0895984E2,2.1404297E1,4.9671875E1,9.251953E1,7.661328E1,3.4294922E2,1.105491E3,7.24605E2,9.104944E2,7.487533E2,1.9472256E3,4.293627E2,1.3627222E3,8.0021576E2,7.0332684E2,3.542048E2,1.4305962E1,4.6652588E1,9.806797E2,3.8140022E3,2.0740781E3,9.1659204E2,3.526358E2,1.453847E2,4.5389496E2,3.5637305E2,0E0,2.8619629E1,1.8937721E2,1.2933636E2,4.588811E2,9.9253253E2,1.9493701E2,3.4635254E2,3.8586502E2,2.5899817E2,2.0936602E3,7.5664386E2,4.822815E0,1.4614316E2,5.2205902E1,2.723938E0,2.3907227E2,3.9597415E2,3.2698755E2,7.325897E-1,3.0870361E0,1.0523682E1,7.492322E1,9.5941574E1,8.498047E1,1.8269891E2,4.261133E1,0E0,6.200836E0,2.5646484E1,4.8695312E1,2.3166016E1,2.653877E2,8.078125E1,4.7674316E2,5.7256836E1,7.491699E2,1.0293906E3,6.9688855E2,1.0576245E3,3.7192334E2,1.0335057E3,3.756272E2,5.0905692E2,5.4702515E2,4.587226E2,1.0146846E3,1.8616982E3,6.7356567E0,5.1340027E2,7.7942126E2,0E0,1.3045884E3,8.9933905E2,2.7219714E2,2.607441E2,4.0263138E2,3.280346E2,0E0,0E0,3.248247E2,4.138446E1,4.962422E2,4.7331934E2,3.8670225E3,3.0528916E3,4.9064703E2,2.0411875E3,0E0,9.167593E2,2.9871057E2,4.9239105E1,0E0,0E0,1.286684E2,2.7254465E2,4.0173462E2,6.242798E2,4.1965576E1,2.6890625E1,1.5121515E2,0E0,2.0803586E2,3.6518127E1,2.0306104E2,3.747447E2,2.8140222E2,5.521447E2,4.4002148E2,1.8262744E2,2.054834E2,1.7879828E2,2.2057599E2,1.8999039E2,1.5164905E2,2.9522186E2,1.3418845E3,1.6853633E3,5.5694775E2,2.7581E2,0E0,0E0,3.0508476E1,9.933029E1,0E0,3.6531708E1,1.0385742E0,0E0,3.053538E2,1.9360742E2,1.845751E2,2.0245395E2,1.0680176E2,2.7177847E2,0E0,0E0,0E0,9.879761E-1,9.588745E0,1.35598755E1,3.4754028E0,6.297705E1,0E0,0E0,5.2923584E1,2.505999E2,0E0,3.1639404E1,0E0,1.4849609E1,0E0,0E0,1.6753906E1,2.1953125E1,5.2179688E1,3.6085938E1,9.605957E0,3.8631348E1,0E0,6.2228516E1,3.6477692E2,4.8362305E1,0E0,1.767793E2,1.884253E1,7.093115E1,2.3394727E2,4.288634E2,0E0,3.649375E2,4.2465662E2,6.358175E2,1.06455444E2,3.8529266E2,2.7225684E2,1.5114934E3,4.6812354E2,6.566055E2,2.562679E2,2.3416333E2,0E0,2.6710355E2,1.0106664E3,8.117427E2,3.5418414E2,0E0,1.2529417E3,5.388262E2,7.8712146E2,3.8214E2,3.2846375E0,0E0,6.0577295E2,1.6235303E2,0E0,7.287036E2,0E0,5.0206848E2,3.4950604E2,4.1812787E2,1.5520793E2,1.1853064E2,2.3354703E2,0E0,3.3681146E2,1.3326028E2,2.6873245E2,1.7244849E2,1.4164502E2,4.042833E2,7.2857857E-1,1.3195923E1,6.253457E2,6.302617E2,0E0,4.8234848E2,1.0698755E3,2.1930408E3,3.3070215E2,1.3280371E3,1.8876668E2,1.474967E2,1.6096484E3,1.5127188E3,5.266023E2,1.2836517E3,2.0937007E2,9.3288284E1,4.2829285E0,3.662947E1,5.472641E1,1.4131883E2,3.0592242E2,0E0,4.533388E2,1.8232971E2,5.1335016E2,1.4825635E2,3.914917E0,3.3884277E1,0E0,0E0,1.0256235E2,0E0,9.4629E1,0E0,1.7841187E1,4.907405E1,1.0139722E2,2.3179498E2,5.0747568E2,0E0,2.070127E2,3.9716406E2,6.7113495E2,5.557851E2,2.4850024E2,0E0,4.6689948E2,4.4720703E1,2.3577783E2,8.22792E2,0E0,1.6148393E2,1.25023834E2,7.76615E1,1.660881E2,0E0,1.1445051E2,1.2790051E2,1.7651965E2,0E0,1.0866973E3,1.8699603E2,1.6793594E3,1.8062007E3,3.0139154E2,3.2831604E2,1.8304233E2,1.24021484E2,0E0,0E0,0E0,0E0,0E0,6.581085E0,0E0,2.2575073E0,1.3392334E2,0E0,9.007178E1,2.0059991E2,1.7824155E2,1.3918314E2,0E0,1.6328192E0,1.5783775E2,1.11608154E2,1.5196356E2,0E0,0E0,0E0,1.647239E1,2.0653076E0,0E0,2.3087463E0,0E0,0E0,2.5871796E1,5.4507263E1,8.136676E1,1.1165649E1,0E0,3.7866516E1,1.0814662E2,3.4964844E1,0E0,1.8692749E1,4.4384766E0,2.117871E1,1.3745117E1,4.8554688E0,9.2203125E1,4.0322266E1,1.060293E2,2.9865234E1,8.933716E-1,1.1851074E1,8.182861E0,1.03015015E2,5.5277344E1,0E0,0E0,6.753186E1,2.0516602E1,5.418164E1,6.3700525E2,9.352246E1,1.7415771E0,2.3105103E1,1.3925525E2,1.5598145E0,1.541875E2,5.7214355E1,4.7208008E1,0E0,1.3439062E2,3.088565E2,0E0,0E0,0E0,0E0,0E0,0E0,0E0,0E0,0E0,0E0,0E0,0E0,0E0,0E0,0E0,0E0,0E0,0E0,0E0,0E0,0E0,0E0,0E0,0E0,0E0,0E0,0E0,0E0,0E0,0E0,0E0,0E0,0E0,0E0,0E0,0E0,0E0,0E0,0E0,0E0,0E0,0E0,0E0,0E0,0E0,0E0,0E0,0E0,0E0,0E0,0E0,0E0,0E0,0E0,0E0,0E0,0E0,0E0,0E0,0E0,0E0,0E0,0E0,0E0,0E0,0E0,0E0,0E0,0E0,0E0,0E0,0E0,0E0,0E0,0E0,0E0,0E0,0E0,0E0,0E0,0E0,0E0,0E0,0E0,0E0,0E0,0E0,0E0,0E0,0E0,0E0,0E0,0E0,0E0,0E0,0E0,0E0,0E0,0E0,0E0,0E0,0E0,0E0,0E0,0E0,0E0,0E0,0E0,0E0,0E0,0E0,0E0,0E0,0E0,0E0,0E0,0E0,0E0,0E0,0E0,0E0,0E0,0E0,0E0,0E0,0E0,0E0,0E0,0E0,0E0,0E0,0E0,0E0,0E0,0E0,0E0,0E0,0E0,0E0,0E0,0E0,0E0,0E0,0E0,0E0,0E0,0E0,0E0,0E0,0E0,0E0,0E0,0E0,0E0,0E0,0E0,0E0,0E0,0E0,0E0,0E0,0E0,0E0,0E0,0E0,0E0,0E0,0E0,0E0,0E0,0E0,0E0,0E0,0E0,0E0,0E0,0E0,0E0,0E0,0E0,0E0,0E0,0E0,0E0,0E0,0E0,0E0,0E0,0E0,0E0,0E0,0E0,0E0,0E0,0E0,0E0,0E0,0E0,0E0,0E0,0E0,0E0,0E0,0E0,0E0,0E0,0E0,0E0,0E0,0E0,0E0,0E0,0E0,0E0,0E0,0E0,0E0,0E0,0E0,0E0,0E0,0E0,0E0,0E0,0E0,0E0,0E0,0E0,0E0,0E0,0E0,0E0,0E0,0E0,0E0,0E0,0E0,0E0,0E0,0E0,0E0,0E0,0E0,0E0,0E0,0E0,0E0,0E0,0E0,0E0,0E0,0E0,0E0,0E0,0E0,0E0,0E0,0E0,0E0,0E0,0E0,0E0,0E0,0E0,0E0,0E0,0E0,0E0,0E0,0E0,0E0,0E0,0E0,0E0,0E0,0E0,0E0,0E0,0E0,0E0,0E0,0E0,0E0,0E0],"parents":[2147483647,0,0,1,1,2,2,3,3,4,4,5,5,6,6,7,7,8,8,9,9,10,10,11,11,12,12,13,13,14,14,15,15,16,16,17,17,18,18,19,19,20,20,21,21,22,22,23,23,24,24,25,25,26,26,27,27,28,28,29,29,30,30,31,31,32,32,33,33,34,34,35,35,36,36,37,37,38,38,39,39,40,40,41,41,42,42,43,43,44,44,45,45,46,46,47,47,48,48,49,49,50,50,52,52,53,53,54,54,57,57,58,58,59,59,60,60,61,61,62,62,63,63,64,64,65,65,66,66,67,67,68,68,69,69,70,70,71,71,72,72,73,73,74,74,75,75,76,76,77,77,78,78,79,79,80,80,81,81,82,82,84,84,85,85,86,86,87,87,88,88,89,89,90,90,91,91,92,92,93,93,94,94,95,95,96,96,97,97,98,98,99,99,100,100,101,101,102,102,103,103,104,104,105,105,106,106,107,107,108,108,109,109,111,111,112,112,113,113,114,114,115,115,116,116,117,117,118,118,119,119,120,120,121,121,122,122,123,123,124,124,125,125,126,126,127,127,128,128,129,129,130,130,131,131,132,132,133,133,135,135,136,136,137,137,138,138,139,139,140,140,143,143,144,144,145,145,146,146,147,147,148,148,149,149,150,150,152,152,153,153,154,154,157,157,158,158,159,159,160,160,161,161,162,162,163,163,165,165,166,166,167,167,168,168,169,169,170,170,171,171,172,172,173,173,174,174,175,175,176,176,177,177,178,178,179,179,180,180,181,181,182,182,185,185,186,186,188,188,189,189,191,191,192,192,193,193,194,194,195,195,196,196,200,200,201,201,202,202,203,203,204,204,207,207,208,208,210,210,212,212,215,215,216,216,217,217,218,218,219,219,220,220,222,222,223,223,224,224,226,226,227,227,228,228,229,229,230,230,232,232,233,233,234,234,235,235,236,236,237,237,238,238,239,239,240,240,241,241,242,242,244,244,245,245,246,246,247,247,249,249,250,250,251,251,252,252,253,253,255,255,256,256,258,258,260,260,261,261,262,262,263,263,264,264,265,265,267,267,268,268,269,269,270,270,271,271,272,272,273,273,274,274,275,275,276,276,278,278,279,279,280,280,281,281,282,282,283,283,284,284,285,285,286,286,287,287,288,288,289,289,290,290,291,291,292,292,293,293,294,294,295,295,297,297,298,298,299,299,300,300,301,301,302,302,305,305,307,307,309,309,310,310,311,311,312,312,313,313,315,315,316,316,317,317,318,318,319,319,321,321,322,322,323,323,324,324,326,326,327,327,328,328,329,329,331,331,332,332,333,333,335,335,336,336,337,337,338,338,339,339,340,340,341,341,342,342,348,348,350,350,351,351,353,353,354,354,355,355,356,356,358,358,359,359,360,360,361,361,365,365,366,366,368,368,371,371,372,372,373,373,374,374,376,376,377,377,378,378,380,380,381,381,382,382,383,383,384,384,385,385,386,386,387,387,388,388,389,389,390,390,391,391,392,392,393,393,396,396,397,397,398,398,399,399,400,400,401,401,402,402,403,403,404,404,405,405,406,406,407,407,409,409,410,410],"right_children":[2,4,6,8,10,12,14,16,18,20,22,24,26,28,30,32,34,36,38,40,42,44,46,48,50,52,54,56,58,60,62,64,66,68,70,72,74,76,78,80,82,84,86,88,90,92,94,96,98,100,102,-1,104,106,108,-1,-1,110,112,114,116,118,120,122,124,126,128,130,132,134,136,138,140,142,144,146,148,150,152,154,156,158,160,-1,162,164,166,168,170,172,174,176,178,180,182,184,186,188,190,192,194,196,198,200,202,204,206,208,210,212,-1,214,216,218,220,222,224,226,228,230,232,234,236,238,240,242,244,246,248,250,252,254,256,258,-1,260,262,264,266,268,270,-1,-1,272,274,276,278,280,282,284,286,-1,288,290,292,-1,-1,294,296,298,300,302,304,306,-1,308,310,312,314,316,318,320,322,324,326,328,330,332,334,336,338,340,342,-1,-1,344,346,-1,348,350,-1,352,354,356,358,360,362,-1,-1,-1,364,366,368,370,372,-1,-1,374,376,-1,378,-1,380,-1,-1,382,384,386,388,390,392,-1,394,396,398,-1,400,402,404,406,408,-1,410,412,414,416,418,420,422,424,426,428,430,-1,432,434,436,438,-1,440,442,444,446,448,-1,450,452,-1,454,-1,456,458,460,462,464,466,-1,468,470,472,474,476,478,480,482,484,486,-1,488,490,492,494,496,498,500,502,504,506,508,510,512,514,516,518,520,522,-1,524,526,528,530,532,534,-1,-1,536,-1,538,-1,540,542,544,546,548,-1,550,552,554,556,558,-1,560,562,564,566,-1,568,570,572,574,-1,576,578,580,-1,582,584,586,588,590,592,594,596,-1,-1,-1,-1,-1,598,-1,600,602,-1,604,606,608,610,-1,612,614,616,618,-1,-1,-1,620,622,-1,624,-1,-1,626,628,630,632,-1,634,636,638,-1,640,642,644,646,648,650,652,654,656,658,660,662,664,666,-1,-1,668,670,672,674,676,678,680,682,684,686,688,690,-1,692,694,-1,-1,-1,-1,-1,-1,-1,-1,-1,-1,-1,-1,-1,-1,-1,-1,-1,-1,-1,-1,-1,-1,-1,-1,-1,-1,-1,-1,-1,-1,-1,-1,-1,-1,-1,-1,-1,-1,-1,-1,-1,-1,-1,-1,-1,-1,-1,-1,-1,-1,-1,-1,-1,-1,-1,-1,-1,-1,-1,-1,-1,-1,-1,-1,-1,-1,-1,-1,-1,-1,-1,-1,-1,-1,-1,-1,-1,-1,-1,-1,-1,-1,-1,-1,-1,-1,-1,-1,-1,-1,-1,-1,-1,-1,-1,-1,-1,-1,-1,-1,-1,-1,-1,-1,-1,-1,-1,-1,-1,-1,-1,-1,-1,-1,-1,-1,-1,-1,-1,-1,-1,-1,-1,-1,-1,-1,-1,-1,-1,-1,-1,-1,-1,-1,-1,-1,-1,-1,-1,-1,-1,-1,-1,-1,-1,-1,-1,-1,-1,-1,-1,-1,-1,-1,-1,-1,-1,-1,-1,-1,-1,-1,-1,-1,-1,-1,-1,-1,-1,-1,-1,-1,-1,-1,-1,-1,-1,-1,-1,-1,-1,-1,-1,-1,-1,-1,-1,-1,-1,-1,-1,-1,-1,-1,-1,-1,-1,-1,-1,-1,-1,-1,-1,-1,-1,-1,-1,-1,-1,-1,-1,-1,-1,-1,-1,-1,-1,-1,-1,-1,-1,-1,-1,-1,-1,-1,-1,-1,-1,-1,-1,-1,-1,-1,-1,-1,-1,-1,-1,-1,-1,-1,-1,-1,-1,-1,-1,-1,-1,-1,-1,-1,-1,-1,-1,-1,-1,-1,-1,-1,-1,-1,-1,-1,-1,-1,-1,-1,-1,-1,-1,-1,-1,-1,-1,-1,-1,-1,-1,-1,-1,-1,-1,-1],"split_conditions":[5.2E1,-2.06E0,5.8E1,-1.2381E2,1E0,5.7E1,1E0,2.0585E4,1E0,1.01522E5,9E0,1E0,1E0,1.275E1,1.00099E5,1.6E1,1E0,1E0,1.9505E4,1E0,1.8E1,1.01522E5,1E0,1.3947E4,-2.06E0,-2.3445E2,-1.93E0,5.2E1,8.1E1,1.6445E4,1.06661E5,1E0,1E0,4.3E1,-3.1179E2,7E0,7.29E0,1E0,4E1,0E0,7E0,-1.42E0,1.11433E5,-6E-2,1.03641E5,1E0,4.7E1,3.75E0,1.09537E5,-1.766E1,2.2E2,8.709211E-2,2.87E1,-3.18E0,1.5188E4,1.8597703E-1,6.7127366E-3,6.7E1,-9.4586E2,-1E-2,1.12E2,1.82E2,1.14261E5,-2.4482E2,6.133E1,4.7E1,-1.4966E2,8.205E1,1E0,7.636E1,1.05079E5,1E0,2.6E1,8.1E1,1.15069E5,4.7E1,1.8E1,1E0,1.00403E5,4.8E1,4.9E0,4.057E3,1E0,-1.332313E-4,1.18602E5,1E0,-4E-2,1E0,3E0,2.00001E0,9E0,2.7E1,1E0,2.3E1,7.9E1,5.2E1,1E0,-1.69E1,6.817E1,-3.1179E2,1.12681E5,7.236E1,3E0,3E0,7.3E1,1E0,8.1E1,7.358E1,1.6741E4,3.4E1,-3.203546E-2,6.042E1,6.042E1,1E0,1.157E4,-6.939E2,1.6741E4,2.046E1,1E0,1.14112E5,-4.54E2,1.2839E4,7E0,-1.726E2,1.869E3,1E0,6.725E3,4.621E1,7.843E1,-1.9381E2,1.154E5,1.13631E5,1.15737E5,1.02172E5,-2.1597715E-1,-1.3395E2,2.5E1,4.365E1,1.9505E4,1.15737E5,1.2361E4,9.104952E-2,-2.6127694E-2,1.04768E5,9E0,-2.94E0,6.244E1,-2.458E1,1E0,1.9E1,-3.527E1,-2.1602648E-1,7.007E1,8.9E0,4.6E1,-2.1600696E-1,9.104952E-2,4E0,8.437E1,1.2047E4,-5E-2,1.03323E5,1E0,4.2E1,-2.155507E-1,4.7E1,1.15888E5,1.3797E4,-1E-1,1.09E1,1.092E3,7.818E1,-7E-2,-8E-2,8E0,1.6E1,7.944E1,1.869E3,9.2E1,4E0,1E0,3.5E1,1.2674E4,2.104354E-1,1.543727E-1,-7.088E1,8.061E1,8.842476E-3,1E0,-8.751E1,1.6639882E-1,6.456E1,-2.0273E2,-9.15E0,8.205E1,3.5E1,-1E-2,1.9295625E-1,2.1564244E-1,1.7270954E-1,-2.5E0,5.235E1,8.455E3,-2.696E1,4.216E3,-2.1549983E-1,9.104952E-2,9.067E3,7.944E1,-2.1522403E-1,-5E-2,3.0014968E-2,-6.25E0,7.2232336E-2,1.4863886E-1,-7E-2,1.82E2,8.028E1,5.461E3,7.8E2,4.484E1,-2.1529858E-1,8.9E0,1E0,-9.43E0,-2.1565561E-1,-3.2916E2,-2.402E1,7.202E1,8.437E1,-2.3445E2,-2.158755E-1,8.028E1,1.5E1,-6.939E2,6.694E1,-2.1284E2,2.3E1,5.048E1,6.702E1,8.162E1,-2.7281E2,5.423E1,-2.158234E-1,5.964E1,3.8E1,5.3E1,-1.3395E2,-2.1598764E-1,4.241E1,-1.5E-1,8.437E1,8.722E1,-2.1284E2,1.4036334E-1,5.136E1,1E0,-2.1588883E-1,4.2E1,-2.1604349E-1,2.6E1,3.381E1,4.9E1,-6.308E1,8.722E1,-4.27E1,-2.1571662E-1,-2.94E0,2.5E1,6.244E1,0E0,2.19E2,3E1,6.516E1,-1.843E1,-5.272E1,8.37E1,-2.159092E-1,7.007E1,-1.1789E2,2.00001E0,8.287E1,6.6E1,-5.35E0,-4.89E0,8.7E1,-2.58E0,4.7E1,2.00001E0,7.73E1,5E0,5.2E1,5.3E1,1E0,6E0,6.308E1,-2.1574165E-1,6.854E1,0E0,-1.63E0,6.456E1,5.724E1,-8E-2,1.1070433E-1,2.095769E-1,5.423E1,-2.1523413E-1,7.134E1,2.0787872E-1,3.1E1,1.7E-1,-1E0,-5.6E-1,-1.42E0,-2.1592425E-1,1.1E2,1.1E0,8.287E1,1E0,-4E-2,-2.1567667E-1,7.508E1,6.308E1,2.00001E0,2.00001E0,-2.1553478E-1,3.062E1,1E0,5.929E1,7.875E1,-2.1552218E-1,5.764E1,2.00001E0,4.75E1,-2.1570359E-1,2.6E1,1.525E1,6.069E1,-5E-2,2.6E1,5.5E1,4.9E1,8.665E1,1.8847816E-1,3.5272863E-2,-2.155507E-1,9.104952E-2,4.359493E-2,-3.18E0,2.1378191E-1,-2E-2,3.997E1,-2.158458E-1,2.00001E0,8E1,2.00001E0,8.6E1,-2.1594843E-1,5.4E1,-5.6E-1,5.667E1,1E0,-2.1575505E-1,2.15911E-1,1.9295625E-1,2.00001E0,6.656E1,6.8742245E-2,8.162E1,1.5730777E-1,2.0234084E-1,6E1,4.46E1,1E0,-2E-2,-2.1542633E-1,7.978E1,-2.2E-1,3.888E1,1.1070433E-1,1.72E2,5.05E1,2.85E1,1.1E2,3E0,6.244E1,8.5E1,7.134E1,1.04E2,6.2E1,6.2E1,6.7E1,1.25E2,-1.9381E2,-5.886147E-3,-2.1553886E-1,-1E-2,-6.737E1,-7.42E0,-4.0569E2,7.9E1,-2.458E1,2.17E2,1E0,-2.9227E2,1.8E2,-1.004E1,2.17E2,-2.159201E-1,1E0,8.612E1,1.2393731E-1,-1.0305255E-1,1.5705116E-1,-2.1596435E-1,-1.21366225E-1,-2.1601588E-1,-2.1586986E-1,1.9347372E-2,-2.1544363E-1,1.216406E-1,-2.159846E-1,1.1789602E-1,-2.1561505E-1,1.675027E-1,5.37197E-2,-5.639413E-2,8.519107E-2,-7.862539E-2,-3.984531E-2,-1.3028048E-1,-2.1549037E-1,1.1566198E-1,2.674767E-2,-1.7761791E-1,8.8470384E-2,9.430686E-3,-9.564143E-2,2.4836628E-2,-2.0737249E-1,-5.468866E-2,1.21162996E-1,-1.253471E-1,9.602681E-3,-2.1601416E-1,1.7601852E-1,-2.1549037E-1,2.0342742E-1,1.6331969E-1,-2.1597144E-1,-1.1533101E-3,1.0821059E-1,-4.0151738E-2,1.07169785E-1,-2.1586265E-1,-2.1576203E-1,1.4565434E-1,-2.1582516E-1,2.657972E-2,-1.2209011E-1,9.796424E-2,1.5071285E-1,-1.1208421E-1,-1.8747272E-1,7.947556E-2,1.2696913E-1,-3.7129536E-2,2.6372682E-2,-2.1581523E-1,-2.1591742E-1,9.104952E-2,-2.1579608E-1,3.1154424E-2,-2.151459E-1,1.12295076E-1,-5.6803748E-2,1.5658683E-1,-2.158065E-1,1.4230917E-1,6.200958E-2,9.104952E-2,1.2989637E-1,2.0196556E-1,-1.5849003E-1,-1.1591889E-1,-1.956758E-1,4.4722036E-2,1.1182573E-1,-7.48574E-2,-2.1597841E-1,4.3783013E-2,1.0992551E-2,-8.735511E-2,3.864413E-2,-1.0204611E-1,-1.0916201E-1,-5.2839518E-2,-7.3528045E-4,-1.6072139E-1,4.9828745E-2,1.7360015E-1,-9.838321E-2,2.5633357E-2,-1.324674E-1,-6.3979916E-2,-8.65198E-2,-2.4168443E-2,1.5860202E-2,-1.3793752E-1,-7.0208035E-2,2.1840086E-2,-2.6127694E-2,1.9100806E-1,1.6331969E-1,2.1378191E-1,-1.6518904E-2,1.4863886E-1,-7.31531E-2,-2.1593781E-1,6.931032E-2,-2.1548553E-1,-1.8626194E-2,7.204716E-2,-2.0243146E-2,6.4449966E-2,8.7677814E-2,-2.1531522E-1,1.4764002E-1,-1.0656863E-1,1.0614707E-1,7.798614E-2,2.0486595E-1,1.819169E-1,1.16883E-1,1.6422993E-1,-6.5898634E-2,1.2889135E-1,-2.1557987E-1,7.580902E-2,1.353141E-1,1.9889343E-1,6.681297E-2,2.104354E-1,2.7467655E-2,-1.9733956E-1,-5.1585045E-2,-2.159453E-1,-2.1591361E-1,3.8837627E-2,-2.1597928E-1,3.8367014E-2,-5.1020745E-2,1.02469206E-1,-1.7296264E-1,1.1202802E-1,9.031136E-2,1.6462315E-4,1.605324E-1,6.2488362E-2,-2.157093E-1,1.9137184E-1,1.9272785E-1,1.3936627E-1,5.3422954E-2,1.0921708E-1,1.2372487E-1,4.9226087E-2,-2.1544363E-1,4.6712082E-2,5.2516565E-2,-1.3172509E-1,-9.617183E-2,-2.1597244E-1,2.1208156E-2,2.0804751E-1,-2.1542035E-1,4.7016475E-2,1.4915769E-1,8.912668E-2,5.9539523E-2,-2.154322E-1,-1.3298194E-1,-3.1663004E-2,-2.1519221E-1,1.1868568E-1,-1.3450289E-1,-6.628278E-2,-1.0997129E-1,-3.636111E-2,-1.1430698E-2,-2.1593907E-1,4.655425E-2,1.7523535E-1,-9.686589E-2,4.9496148E-2,-2.1597369E-1,-4.556699E-2,2.1193826E-1,1.6798843E-1,1.7722939E-1,2.0989932E-1,-2.1524398E-1,7.2104245E-2,1.5019313E-1,2.1398416E-2,6.743527E-2,-5.1879242E-2,-2.1581802E-1,6.6852923E-3,4.95218E-2,-2.1533115E-1,2.7467655E-2,6.8742245E-2,2.104354E-1,-2.6274968E-2,1.2605105E-1,7.9642214E-2,-2.1541426E-1,4.801299E-2,1.8617722E-1,6.8742245E-2,2.0026642E-1,1.8073516E-1,1.4583798E-1,1.8390232E-1,1.7589611E-1,1.03765875E-1,7.242602E-2,1.9554165E-1,1.525052E-1,8.107382E-3,1.5965852E-1,1.9165775E-1,1.961854E-1,9.588746E-2,1.252296E-1,-7.815008E-2,2.5720112E-3,1.299045E-1,7.947556E-2,1.8716668E-1,2.0121561E-1,1.714016E-1,1.8807417E-1,7.580902E-2,1.7893451E-1,2.0486595E-1,2.0103647E-1,1.5730777E-1,1.7701942E-1,1.6349337E-1,1.9097202E-1,1.6890046E-1,1.835138E-1,1.4551258E-1,1.7871825E-1,1.9438864E-1,1.9795129E-1,2.1545936E-1,1.5560272E-1,1.9194283E-1,1.5148343E-1,2.092433E-1,1.01792194E-1,1.8569066E-1,1.7852214E-1,1.4954744E-1,1.7104767E-1,6.512625E-2,1.8030003E-1,2.0228629E-1,7.921141E-2,1.6948558E-1,1.2963068E-1,-2.158171E-1,1.340702E-1,1.5950677E-1,1.9763608E-1,2.1581432E-1,1.328455E-1,1.851603E-1,1.504349E-1,1.6591593E-3,2.0496525E-1,1.8633737E-1,1.1579296E-1,1.4452097E-1,1.4588277E-1,2.0490085E-1,2.060372E-2,1.5848291E-1,1.6965258E-1,1.4492156E-1,-1.4512528E-1,1.0530083E-1],"split_indices":[0,37,0,37,50,38,51,39,40,39,0,51,52,7,39,73,35,35,39,35,73,39,52,39,37,37,37,6,1,39,39,35,35,38,37,38,12,35,38,37,38,37,39,37,39,35,38,24,39,37,17,0,27,37,39,0,0,6,37,37,0,38,39,37,33,38,37,33,51,33,39,35,0,1,39,0,38,51,39,38,23,39,34,0,39,35,37,35,0,35,38,0,40,38,33,6,40,37,33,37,39,33,19,64,33,51,33,33,39,13,0,33,33,35,39,37,39,33,34,39,37,39,0,37,39,52,39,33,33,37,39,39,39,39,0,37,38,33,39,39,39,0,0,39,0,37,33,37,50,0,37,0,33,18,0,0,0,0,33,39,37,39,34,38,0,0,39,39,37,30,39,33,37,37,0,38,33,39,5,94,34,33,39,0,0,37,33,0,34,37,0,33,37,37,33,33,37,0,0,0,65,33,39,37,39,0,0,39,33,0,37,0,69,0,0,37,38,33,39,39,33,0,18,34,37,0,37,37,33,33,37,0,33,38,37,33,37,33,33,33,33,37,33,0,33,33,33,37,0,33,70,33,33,37,0,33,35,0,38,0,0,33,0,37,33,37,0,37,38,33,71,31,0,33,37,37,33,0,33,37,35,33,33,37,37,33,37,0,35,33,71,38,38,40,38,33,0,33,37,37,33,33,37,0,0,33,0,33,0,0,66,96,37,37,0,1,25,33,40,37,0,33,33,35,35,0,33,40,33,33,0,33,35,13,0,33,7,33,37,33,38,0,33,0,0,0,0,0,37,0,37,33,0,35,33,35,33,0,0,37,33,35,0,0,0,35,33,0,33,0,0,33,29,35,37,0,33,37,33,0,31,13,7,1,9,33,33,33,38,0,0,0,38,37,0,0,37,37,37,37,0,37,38,35,37,0,37,38,0,35,33,0,0,0,0,0,0,0,0,0,0,0,0,0,0,0,0,0,0,0,0,0,0,0,0,0,0,0,0,0,0,0,0,0,0,0,0,0,0,0,0,0,0,0,0,0,0,0,0,0,0,0,0,0,0,0,0,0,0,0,0,0,0,0,0,0,0,0,0,0,0,0,0,0,0,0,0,0,0,0,0,0,0,0,0,0,0,0,0,0,0,0,0,0,0,0,0,0,0,0,0,0,0,0,0,0,0,0,0,0,0,0,0,0,0,0,0,0,0,0,0,0,0,0,0,0,0,0,0,0,0,0,0,0,0,0,0,0,0,0,0,0,0,0,0,0,0,0,0,0,0,0,0,0,0,0,0,0,0,0,0,0,0,0,0,0,0,0,0,0,0,0,0,0,0,0,0,0,0,0,0,0,0,0,0,0,0,0,0,0,0,0,0,0,0,0,0,0,0,0,0,0,0,0,0,0,0,0,0,0,0,0,0,0,0,0,0,0,0,0,0,0,0,0,0,0,0,0,0,0,0,0,0,0,0,0,0,0,0,0,0,0,0,0,0,0,0,0,0,0,0,0,0,0,0,0,0,0,0,0,0,0,0,0,0,0,0,0,0,0,0,0,0,0,0,0,0,0,0,0,0,0,0,0,0],"split_type":[0,0,0,0,0,0,0,0,0,0,0,0,0,0,0,0,0,0,0,0,0,0,0,0,0,0,0,0,0,0,0,0,0,0,0,0,0,0,0,0,0,0,0,0,0,0,0,0,0,0,0,0,0,0,0,0,0,0,0,0,0,0,0,0,0,0,0,0,0,0,0,0,0,0,0,0,0,0,0,0,0,0,0,0,0,0,0,0,0,0,0,0,0,0,0,0,0,0,0,0,0,0,0,0,0,0,0,0,0,0,0,0,0,0,0,0,0,0,0,0,0,0,0,0,0,0,0,0,0,0,0,0,0,0,0,0,0,0,0,0,0,0,0,0,0,0,0,0,0,0,0,0,0,0,0,0,0,0,0,0,0,0,0,0,0,0,0,0,0,0,0,0,0,0,0,0,0,0,0,0,0,0,0,0,0,0,0,0,0,0,0,0,0,0,0,0,0,0,0,0,0,0,0,0,0,0,0,0,0,0,0,0,0,0,0,0,0,0,0,0,0,0,0,0,0,0,0,0,0,0,0,0,0,0,0,0,0,0,0,0,0,0,0,0,0,0,0,0,0,0,0,0,0,0,0,0,0,0,0,0,0,0,0,0,0,0,0,0,0,0,0,0,0,0,0,0,0,0,0,0,0,0,0,0,0,0,0,0,0,0,0,0,0,0,0,0,0,0,0,0,0,0,0,0,0,0,0,0,0,0,0,0,0,0,0,0,0,0,0,0,0,0,0,0,0,0,0,0,0,0,0,0,0,0,0,0,0,0,0,0,0,0,0,0,0,0,0,0,0,0,0,0,0,0,0,0,0,0,0,0,0,0,0,0,0,0,0,0,0,0,0,0,0,0,0,0,0,0,0,0,0,0,0,0,0,0,0,0,0,0,0,0,0,0,0,0,0,0,0,0,0,0,0,0,0,0,0,0,0,0,0,0,0,0,0,0,0,0,0,0,0,0,0,0,0,0,0,0,0,0,0,0,0,0,0,0,0,0,0,0,0,0,0,0,0,0,0,0,0,0,0,0,0,0,0,0,0,0,0,0,0,0,0,0,0,0,0,0,0,0,0,0,0,0,0,0,0,0,0,0,0,0,0,0,0,0,0,0,0,0,0,0,0,0,0,0,0,0,0,0,0,0,0,0,0,0,0,0,0,0,0,0,0,0,0,0,0,0,0,0,0,0,0,0,0,0,0,0,0,0,0,0,0,0,0,0,0,0,0,0,0,0,0,0,0,0,0,0,0,0,0,0,0,0,0,0,0,0,0,0,0,0,0,0,0,0,0,0,0,0,0,0,0,0,0,0,0,0,0,0,0,0,0,0,0,0,0,0,0,0,0,0,0,0,0,0,0,0,0,0,0,0,0,0,0,0,0,0,0,0,0,0,0,0,0,0,0,0,0,0,0,0,0,0,0,0,0,0,0,0,0,0,0,0,0,0,0,0,0,0,0,0,0,0,0,0,0,0,0,0,0,0,0,0,0,0,0,0,0,0,0,0,0,0,0,0,0,0,0,0,0,0,0,0,0,0,0,0,0,0,0,0,0,0,0,0,0,0,0,0,0,0,0,0,0],"sum_hessian":[5.1234525E5,4.0130297E5,1.1104227E5,2.4377084E5,1.5753212E5,1.2355807E4,9.868647E4,5.860712E4,1.8516373E5,2.2753732E4,1.3477839E5,7.9077837E3,4.4480225E3,1.0145951E4,8.8540516E4,3.1560938E4,2.7046184E4,7.521344E3,1.7764238E5,1.9953592E4,2.8001394E3,3.989577E4,9.4882625E4,5.874599E2,7.320324E3,6.655749E2,3.7824478E3,5.570499E1,1.0090246E4,5.3339535E4,3.520098E4,1.6184048E4,1.537689E4,1.9540064E4,7.5061177E3,5.627304E3,1.8940397E3,7.131544E4,1.06326945E5,2.0034481E3,1.7950145E4,2.0351713E3,7.649682E2,2.3049818E4,1.6845953E4,4.7100093E3,9.017262E4,1.9326663E2,3.9419327E2,3.9863894E3,3.3339346E3,1.9401665E1,6.461732E2,1.8465063E3,1.9359413E3,2.9303328E1,2.6401665E1,5.9476324E2,9.495483E3,4.1773254E4,1.1566284E4,1.1155103E4,2.4045879E4,3.3785112E3,1.2805536E4,3.3951865E3,1.1981704E4,1.7270611E4,2.2694531E3,2.9933396E3,4.512778E3,1.1981932E3,4.4291113E3,5.030333E1,1.8437363E3,2.4742918E4,4.657252E4,9.3348445E4,1.2978501E4,1.7142965E3,2.8915167E2,2.0773298E3,1.5872814E4,2.7401665E1,2.0077697E3,2.4801663E2,5.169516E2,1.8915582E3,2.115826E4,3.035611E3,1.3810341E4,8.2988995E2,3.8801194E3,8.335159E4,6.8210273E3,7.3258316E1,1.20008316E2,2.0822163E2,1.8597163E2,2.845323E3,1.1410665E3,3.2641763E3,6.9758316E1,1.6831996E2,4.7785324E2,1.7966047E3,4.9901665E1,1.281383E3,6.545582E2,5.626116E2,3.2151665E1,5.270499E1,9.442778E3,3.808053E4,3.6927192E3,5.447316E3,6.1189688E3,8.945764E3,2.2093396E3,1.3051998E4,1.0993882E4,1.5266248E3,1.8518865E3,6.630759E3,6.1747773E3,2.8496448E3,5.4554156E2,1.0622297E4,1.3594066E3,1.5785405E4,1.4852065E3,1.7656996E2,2.092883E3,2.8080896E3,1.8525E2,8.829716E2,3.6298064E3,7.444633E2,4.5372995E2,3.0239946E3,1.4051165E3,1.9151665E1,3.1151665E1,1.5153998E3,3.283366E2,2.3982574E4,7.603449E2,2.3509574E4,2.3062945E4,1.00227155E3,9.234617E4,3.855E2,1.2593001E4,1.5664315E3,1.4786497E2,2.7E2,1.9151665E1,2.6435666E2,1.8129731E3,5.9489575E3,9.923856E3,1.652978E3,3.547916E2,2.1426663E2,3.375E1,9.760666E1,4.193449E2,1.1524717E3,7.390866E2,6.0512827E3,1.5106977E4,1.4290348E3,1.6065764E3,1.2672062E4,1.1382799E3,4.5496332E2,3.7492664E2,1.8356664E3,2.0444531E3,3.876446E4,4.458713E4,6.1750024E3,6.4602496E2,4.145499E1,3.1803328E1,6.710666E1,5.2901665E1,2.6151665E1,1.8206996E2,1.551683E2,3.0803328E1,2.6271332E2,2.5826096E3,9.5401324E2,1.8705333E2,2.668188E3,5.959883E2,2.8803328E1,4.095499E1,3.0303328E1,1.3801663E2,3.8044327E2,9.740998E1,8.790998E1,1.7086947E3,3.075E1,1.9151665E1,1.0692148E3,2.121683E2,2.075E1,6.338082E2,2.3901665E1,5.387099E2,2.0401665E1,3.230333E1,4.306249E3,5.136529E3,2.8188328E4,9.892205E3,2.5131394E3,1.1795798E3,2.275E1,5.424566E3,5.587549E2,5.560214E3,4.225E1,8.903514E3,1.0700714E3,1.1392682E3,1.2814338E4,2.3765999E2,8.95E1,1.0904382E4,1.2843665E3,2.4225832E2,5.621066E2,1.2897799E3,5.687889E3,9.428699E2,1.0843131E3,5.0904644E3,4.5342664E2,2.3962183E3,7.075E1,4.747916E2,1.1895049E3,9.432792E3,1.1511566E3,2.0825E2,8.722518E3,7.062888E3,7.478283E2,7.373782E2,1.4351663E2,3.305333E1,1.4100748E3,6.828082E2,9.6E1,2.7120896E3,6.1425E2,2.6872162E2,2.5753713E3,1.0544349E3,1.0510666E2,6.393566E2,4.0422995E2,4.95E1,2.891093E3,1.3290166E2,3.261683E2,1.0789481E3,1.3668915E3,1.4850832E2,4.030333E1,2.8803326E2,2.1821352E4,2.1612217E3,1.08E2,6.523449E2,1.2492702E4,1.1016872E4,3.4727412E3,1.9590203E4,5.453283E2,4.5694327E2,2.3149414E4,6.919676E4,7.920628E3,4.672373E3,1.4483699E3,1.18061646E2,8.590998E1,6.195499E1,1.7240166E2,9.1954994E1,1.7597231E3,5.325E1,3.0318596E3,2.917098E3,4.531233E2,9.470733E3,3.855949E2,1.267383E3,3.605333E1,3.1873828E2,1.9326663E2,2.1E1,5.5901665E1,4.170499E1,2.9453326E2,1.24811646E2,6.54955E2,4.9751663E2,6.200866E2,1.19E2,2.3580333E2,5.8154795E3,5.3676666E2,1.457021E4,1.3845348E3,4.45E1,1.4981165E2,1.4567648E3,3.804361E3,8.8677E3,3.275E1,1.1055299E3,1.7990999E2,2.750533E2,3.4292664E2,3.2E1,9.4204994E1,1.7414614E3,1.9967031E3,4.775E1,3.800434E4,7.601199E2,1.7866123E4,2.6721006E4,3.6296332E2,5.812039E3,3.9797162E2,2.4805333E2,4.370499E1,2.3401665E1,3.375E1,1.9151665E1,2.2651665E1,1.594183E2,5.4856655E1,1.00311646E2,1.8496332E2,7.775E1,5.0929993E2,2.0733098E3,1.7510666E2,7.7890656E2,1.4225E2,4.480333E1,1.9696332E2,2.4712246E3,5.404883E2,5.55E1,1.0921331E2,2.8803328E1,6.460666E1,3.158366E2,2.0651665E1,7.6758316E1,3.1553328E1,5.6356655E1,2.3437329E2,1.4743214E3,4.0463992E2,6.645749E2,2.725E1,1.849183E2,1.4656165E2,4.8724658E2,3.605333E1,5.0265656E2,2.5490496E3,1.7571997E3,4.284679E3,8.5184985E2,2.4117121E4,4.0712075E3,4.0877976E3,5.804407E3,2.4772995E2,2.2654097E3,3.510416E2,8.285382E2,5.396414E3,2.8151665E1,3.3E1,5.257549E2,2.175348E3,3.384866E3,7.003616E2,8.203152E3,5.673165E2,5.027549E2,8.6988654E2,2.6938162E2,1.2000246E4,8.140915E2,1.2190998E2,1.1575E2,1.0637463E4,2.669183E2,1.1798131E3,1.0455333E2,7.9008316E1,1.6325E2,2.4935666E2,3.1275E2,8.7E1,1.2027799E3,2.8E1,5.659889E3,2.01E2,7.418699E2,3.85E1,1.0458131E3,4.351431E3,7.3903326E2,1.9576663E2,2.5765997E2,4.0181998E2,1.9943982E3,3.025E1,4.445416E2,7.287999E2,4.60705E2,1.898363E3,7.534429E3,6.369716E2,5.1418494E2,6.801517E2,8.042366E3,1.0490998E2,6.957978E3,4.4432828E2,3.035E2,7.071282E2,3.025E1,1.1246331E2,3.1053328E1,1.7475E2,1.2353248E3,5.821033E2,1.00704994E2,2.6280896E3,8.4E1,5.675E1,2.1197163E2,7.125E1,2.5041213E3,9.4177496E2,1.1265998E2,4.820499E1,5.6901665E1,6.19455E2,1.9901665E1,2.0631996E2,1.9790999E2,2.822593E3,6.85E1,1.1375E2,1.9151665E1,6.375E1,2.624183E2,1.9E1,1.0599481E3,3.7151665E1,1.3297397E3,6.625E1,8.2258316E1,2.1151665E1,1.9151665E1,3.405333E1,2.5397995E2,5.3278867E3,1.6493467E4,2.0255616E3,1.3565999E2,3.5978326E2,2.9256165E2,1.8775E2,1.2304952E4,4.4167827E3,6.6000894E3,3.2656345E3,2.0710666E2,9.325881E3,1.0264322E4,4.3842664E2,1.06901665E2,1.9961497E2,2.5732828E2,2.1855875E4,1.2935382E3,6.5201387E4,3.9953713E3,5.73786E3,2.182768E3,3.9171062E3,7.5526666E2,1.0516932E3,3.9667664E2,3.1151665E1,8.690998E1,3.1053328E1,5.4856655E1,2.9651665E1,3.230333E1,4.1401665E1,1.31E2,6.195499E1,3E1,7.7694324E2,9.8277985E2,1.2653699E3,1.7664897E3,2.893848E3,2.325E1,1.2971332E2,3.2340997E2,6.0602007E3,3.410533E3,2.5222995E2,1.3336497E2,2.1256996E2,1.0548131E3,3.9401665E1,1.5386497E2,3.575E1,2.0151665E1,6.710666E1,2.2742662E2,8.335666E1,4.145499E1,2.4151665E1,6.3080334E2,3.5876663E2,1.3875E2,1.11E2,5.090866E2,1.895E2,4.630333E1,5.611811E3,2.036683E2,4.10955E2,1.25811646E2,8.471732E2,1.3723037E4,9.3984985E2,4.4468494E2,4.85E1,1.01311646E2,1.2410431E3,2.1572163E2,2.407933E3,1.3964281E3,6.510624E3,2.3570764E3,2.8E1,1.0775299E3,1.09758316E2,7.0151665E1,9.855333E1,1.765E2,2.734183E2,6.9508316E1,2.7E1,6.7204994E1,6.783699E2,1.0630916E3,1.9692031E3,2.75E1,1.27823E3,3.672611E4,2E1,7.401199E2,6.7987563E3,1.1067367E4,4.7263916E3,2.1994615E4,2.3071332E2,1.3225E2,5.570863E3,2.4117662E2,1.9810666E2,1.9986497E2,1.7875E2,6.930333E1,8.265998E1,7.6758316E1,4.495499E1,5.5356655E1,2.125E1,1.6371332E2,4.348449E2,7.4454994E1,1.8935514E3,1.7975832E2,6.925E1,1.0585666E2,7.5515656E2,2.375E1,2.4151665E1,2.0651665E1,4.145499E1,1.5550832E2,1.4139364E3,1.0572882E3,2.675E1,5.137383E2,4.395499E1,2.0651665E1,2.2667662E2,8.915998E1,3.255333E1,4.420499E1,1.05311646E2,1.2906165E2,1.4313665E3,4.295499E1,3.520866E2,5.255333E1,1.726683E2,4.9190656E2,7.1508316E1,1.1340998E2,1.0365998E2,4.2901665E1,2.6901665E1,4.603449E2,1.9901665E1,4.827549E2,2.4881929E3,6.0856655E1,1.737048E3,2.0151665E1,4.0324492E3,2.5222995E2,8.202965E2,3.1553328E1,1.0175328E4,1.3941792E4,2.4928362E3,1.5783713E3,2.8641729E3,1.2236248E3,3.332321E3,2.4720862E3,4.270499E1,2.0502496E2,1.11061646E2,2.154348E3,3.205333E1,3.1898828E2,2.4122163E2,5.873165E2,9.2690314E2,4.4695107E3,4.4189825E2,8.385666E1,1.4139081E3,7.614398E2,7.985666E1,3.3050093E3,6.313616E2,6.9E1,2.3756345E3,5.827517E3,4.9905823E2,6.8258316E1,1.3521332E2,3.675416E2,7.886815E2,8.1204994E1,1.9612329E2,7.3258316E1,9.137205E3,2.8630413E3,3.0963162E2,5.044599E2,7.4704994E1,4.720499E1,4.313019E3,6.324444E3,8.3401665E1,1.8351663E2],"tree_param":{"num_deleted":"0","num_feature":"98","num_nodes":"695","size_leaf_vector":"1"}},{"base_weights":[8.939898E-3,-3.436945E-1,1.2713823E0,-2.2437097E-1,-6.688439E-1,6.731558E-1,1.3481022E0,6.0149544E-1,-3.3209953E-1,2.831509E-1,-7.373813E-1,4.8313883E-1,8.8298875E-1,1.4388345E0,1.2091578E0,5.439726E-1,1.0554556E0,-1.4385274E-1,-5.768592E-1,7.277381E-2,1.2153888E0,-7.981833E-1,-1.6500585E-2,1.064162E0,3.7686032E-1,1.1811881E0,8.210028E-1,1.4581676E0,1.3756292E0,1.5846249E0,1.1787704E0,1.1401074E-1,5.883254E-1,5.8207333E-1,1.2250348E0,5.592533E-1,-1.9529842E-1,-7.958734E-1,4.4227127E-2,-3.179099E-1,5.2155286E-1,8.424561E-1,1.3818625E0,-8.926023E-1,-2.850885E-1,-2.4237351E-1,3.6309335E-1,1.1467396E0,2.3190823E-1,-1.2956933E0,3.9875698E-1,1.3090521E0,4.3139735E-1,9.2747843E-1,1.9713867E-1,1.5078124E0,1.4241E0,1.2766225E0,1.4601096E0,4.7095682E-2,1.5927215E0,1.7398678E0,1.1702863E0,7.136501E-1,-1.088917E-1,7.511408E-1,4.9773768E-1,-2.1286513E-1,7.13644E-1,1.3304901E0,1.0593767E0,8.593757E-1,4.4777554E-1,3.3087268E-1,-2.6696828E-1,-2.1703255E-1,-8.970461E-1,8.2865E-1,-5.603917E-1,-1.1433575E0,6.5615304E-2,5.5989426E-1,-2.0609364E-1,9.889544E-1,-2.1550253E-1,1.5865796E0,1.0654652E0,-3.8468587E-1,-9.645369E-1,3.7730736E-1,-5.637539E-1,-1.9059588E-1,-2.1283603E-1,9.9005586E-1,1.6506651E-1,1.4900512E0,9.841096E-1,9.9171495E-1,-2.2035025E-1,2.1941762E-2,-2.1710114E-1,5.110285E-1,1.200244E-1,1.0720239E0,1.4565486E0,1.2930992E0,-1.8797792E-1,7.63044E-2,9.8135793E-1,3.8742894E-1,-2.0299129E-1,1.5818604E0,1.4540716E0,1.1629652E0,1.4420588E0,-2.1067558E-1,1.2948447E0,1.5176078E0,1.3367066E0,1.5475073E0,1.6600485E0,1.7911804E0,1.4203384E0,1.0786058E0,1.2103736E0,-3.027546E-1,9.704106E-1,-2.0260522E-1,1.683981E-2,8.5228676E-1,3.472043E-1,3.2953677E-1,5.933024E-1,-3.262035E-1,8.328962E-1,1.3675874E0,-5.3289276E-2,1.5647908E0,9.486925E-1,9.1039854E-1,-1.2015814E0,-4.248612E-1,4.77417E-1,7.3441225E-1,2.9890288E-2,-7.4212834E-2,-3.9468697E-1,-1.865912E0,-1.315859E-1,-9.3309414E-1,-1.96677E-1,8.875132E-1,4.8929986E-1,-1.15156986E-1,-6.728271E-1,-5.2851063E-1,-1.5995623E0,4.4851834E-1,-9.1866785E-1,1.062323E-1,8.113921E-1,5.373771E-1,1.7946852E0,1.6482524E0,2.078344E-2,2.1278659E-1,9.035935E-1,1.8774213E-1,-5.548544E-1,-1.0383605E0,-6.4068896E-1,-8.4004486E-1,9.183512E-1,-9.971924E-1,9.032899E-2,-7.449711E-1,-4.1469503E-2,1.2175366E0,2.6683035E-1,-1.3590946E0,3.7058097E-1,7.9236144E-1,1.6490413E0,1.0371952E0,-1.559404E-2,-8.000892E-3,1.8314351E-1,6.9001484E-1,1.7166238E-1,-5.1528573E-1,3.6117622E-1,4.1726226E-1,1.2878336E0,1.1564609E0,1.5865524E0,1.8160957E-1,5.2224025E-2,9.889127E-1,-2.1651699E-1,-1.3124079E0,6.890404E-1,9.543151E-1,1.7420772E0,-2.1811618E-1,5.0390613E-1,1.608267E0,1.4328803E0,1.0061486E0,1.4626374E0,1.2736951E0,7.002593E-1,-4.0571213E-2,1.4443784E0,-4.817441E-1,1.312589E0,1.529841E0,8.937863E-2,9.7510976E-1,1.4149758E0,2.3847367E-3,1.5692778E0,1.6909896E0,1.5349667E0,1.9807212E-1,1.7441238E0,1.7027568E0,6.5137394E-2,-2.1233557E-1,1.0852833E0,1.1388727E0,1.329676E0,1.4778107E-1,-2.2103441E-1,1.1581656E0,4.124301E-1,-2.146505E-1,9.275206E-2,8.749374E-1,-6.3586885E-1,4.3837285E-1,-1.4627508E0,5.6482744E-1,1.193799E-1,7.388574E-1,4.4226202E-1,5.717269E-1,-9.947273E-1,6.801365E-1,1.2930225E0,1.4429742E0,9.698455E-1,1.6682163E0,1.2483556E0,1.4297163E-1,1.0202072E0,-1.23187646E-1,9.685596E-1,-1.8880859E-2,-2.1932156E-1,-1.2459934E0,7.832785E-1,4.2608982E-1,1.0741199E0,7.442874E-1,-2.1104288E-1,2.7324033E-1,-1.2659459E-1,1.519033E-1,-2.0020208E-1,-4.277242E-1,1.21916346E-1,-1.9647543E-1,-2.0663303E-1,1.3847513E-1,-5.343198E-1,-8.1101876E-1,-1.0996152E0,3.2070297E-1,-1.0297977E0,1.0038359E0,7.358485E-1,6.8139654E-1,9.6242614E-2,2.5668967E-1,-4.2799327E-1,-8.1768405E-1,-1.457941E-1,3.6113402E-1,-9.531888E-1,1.6275774E-1,-1.7717211E0,8.826832E-1,4.4310957E-2,1.0979122E0,-1.1093153E0,9.402882E-1,-3.716211E-1,-4.504738E-1,8.926496E-1,1.0017768E0,-5.762694E-1,2.08563E-1,1.6639509E0,1.3267913E0,1.6910074E0,-2.1576424E-1,1.1703355E0,7.066722E-1,-6.0649645E-1,-4.8967695E-1,-2.1016535E-1,-1.1115599E0,-7.7129096E-1,-5.7457566E-1,-1.3269167E0,-6.4114296E-1,-2.1138972E-1,9.513142E-1,-2.2974457E-1,-4.9264437E-1,-1.1661961E0,8.060857E-1,-2.8887987E-1,-2.6486105E-1,-1.7574538E0,1.461776E0,-1.2952182E-1,1.0471933E0,1.5548792E0,7.205217E-1,-2.2119315E-1,-1.6593212E0,-7.677987E-1,1.640128E0,2.989312E-1,1.5463674E-1,2.6334748E-3,1.2621044E-1,1.7215304E0,8.861815E-1,1.5756654E0,3.728313E-1,7.9475224E-1,7.8957134E-1,-2.9701874E-1,-1.1442248E-1,-2.0581654E-1,-2.1369179E-1,4.0984383E-1,-2.086185E-1,1.8497567E-1,3.3252206E-2,1.3836348E0,-3.5075138E-3,1.383534E0,1.5422772E0,1.7812673E0,1.8802336E-1,1.3964284E-2,-2.1211013E-1,5.8427855E-2,1.2090218E0,-8.382914E-1,9.685083E-1,-6.0528014E-2,1.593072E-1,1.9588378E-1,2.0604748E-1,2.9571638E-1,1.5798123E0,1.6651723E0,1.232023E0,1.5468575E0,-2.3621067E-1,1.379061E0,1.7200729E0,1.4484643E0,7.7983516E-1,1.4466084E0,1.1640824E0,-2.3520833E-1,1.3793124E0,1.4903082E0,-2.3627155E-1,1.1114012E-1,1.1329272E0,1.3529786E0,1.3845433E0,1.5649817E0,3.3312556E-1,1.2517526E0,1.1620983E0,1.5048078E0,1.5874275E0,7.946385E-2,1.9604646E-1,1.6565893E0,1.3880002E0,1.9512992E-1,1.7245595E-1,1.9071877E-1,1.9735144E-1,1.7075442E-1,1.2518241E0,1.0584494E0,1.0755008E0,1.2967409E0,1.4393525E0,1.2762256E0,-9.306276E-2,7.927671E-2,-6.156911E-2,1.4156258E-1,-4.424791E-2,6.928633E-2,1.5256917E-2,-2.1368064E-1,1.0733373E-1,6.264001E-2,1.7551853E-1,-1.5022886E-1,-2.19292E-1,5.1216733E-2,-2.2062059E-1,-6.499598E-2,-3.776698E-2,7.058147E-2,-1.5227534E-1,2.2320988E-2,6.4832814E-2,1.1115319E-1,-2.2002336E-1,4.9387477E-2,4.272706E-2,8.19894E-2,-2.1018276E-1,8.469566E-2,3.4299854E-2,1.0381118E-1,1.2133403E-2,1.7948742E-1,5.243743E-2,1.5750693E-1,1.230026E-1,2.009588E-2,1.4369464E-1,1.9688365E-1,7.986963E-2,1.7119275E-1,-3.8976766E-2,5.7975806E-2,1.15079954E-1,-1.7535591E-2,-1.4416546E-1,1.4522739E-1,1.270546E-1,7.529561E-2,-2.1529752E-1,4.2181343E-2,1.5299663E-1,-4.4086255E-2,-2.0158041E-2,5.0894663E-2,1.6109729E-1,9.1028124E-2,4.8555214E-2,9.943792E-2,3.7228797E-2,-1.4043716E-1,-1.3661404E-1,1.5435491E-3,-1.8012063E-1,1.8613685E-2,-4.903533E-2,-6.102776E-3,-2.976201E-2,-6.2800646E-2,-4.064218E-2,4.1400053E-2,2.6626082E-2,-1.4665695E-1,-1.6125527E-1,-2.5987942E-2,-3.097542E-2,-9.2329234E-2,-1.281407E-1,-3.7273824E-2,2.6752308E-3,7.9132676E-2,-1.5417325E-1,1.110107E-1,1.1246774E-1,-1.4440053E-2,6.5015964E-2,9.815221E-2,-2.0074813E-1,7.78605E-2,-1.4926468E-1,3.7470445E-2,-8.835727E-2,5.1002547E-2,-1.095801E-1,7.848303E-2,-3.736879E-2,-1.1332477E-1,7.1843006E-3,-8.276332E-2,1.1024013E-1,-2.0770659E-1,-2.0231709E-1,-7.028068E-2,-2.0204988E-1,-1.6159308E-1,1.05924085E-1,-2.167642E-1,-8.53088E-2,8.0117635E-2,2.5025424E-2,2.0019975E-1,-1.6934066E-1,-5.051933E-3,2.0684872E-2,1.8156308E-1,-8.9174695E-2,7.754046E-2,1.2152857E-1,-2.1244939E-1,1.05932556E-1,3.1003445E-2,7.942948E-2,2.0416555E-1,-2.1787485E-1,9.4834015E-2,1.660885E-1,1.890283E-1,1.1098207E-1,1.8253127E-1,1.4626084E-1,1.8522063E-1,7.5474724E-2,1.5275681E-1,1.4758658E-1,1.7224835E-2,-1.6401543E-1,2.8681189E-2,-6.3527845E-2,4.1337185E-2,-1.3017552E-1,-8.1808224E-2,-8.9896105E-2,2.6695276E-2,-9.9104986E-2,-4.1476347E-2,1.8164074E-1,-1.6219641E-1,-1.1459602E-1,6.0687606E-5,1.1247377E-1,-2.2484924E-1,4.4247117E-3,-1.2470219E-1,-7.039967E-2,-1.4062388E-1,-9.6270345E-2,1.0967828E-1,-4.8942935E-2,1.6823673E-1,7.06503E-2,-1.4866087E-1,-2.0724884E-1,-1.3784082E-1,1.4519408E-2,1.7771572E-1,-1.0256214E-2,-2.1429913E-1,-1.9449055E-1,1.4101066E-1,2.0434539E-1,1.6132504E-1,-3.7969172E-2,1.14063255E-1,-2.1204087E-1,-6.0061563E-2,2.1577436E-2,-2.149097E-1,1.8776898E-1,1.5326364E-1,3.609153E-2,-2.1463367E-1,2.0355149E-1,1.6736035E-1,-3.3101123E-2,1.0455283E-1,1.8432651E-1,8.492976E-2,-1.1482346E-1,5.5871908E-2,6.8905845E-2,1.3164322E-1,1.0441602E-1,-2.1324995E-1,-6.149178E-2,1.3728E-1,-2.179054E-1,1.5234686E-2,1.9893661E-2,1.2099068E-1,-7.30289E-2,7.561568E-2,1.7724046E-1,1.2782703E-1,4.1538946E-2,1.6899033E-1,1.1695918E-1,1.7628787E-1,2.0960453E-1,1.8099073E-1,1.6320011E-1,1.03112444E-1,3.4177475E-2,-2.1337302E-1,1.4175628E-1,9.8371565E-2,1.3194388E-1,-4.49432E-3,5.389958E-2,1.7120424E-1,1.7721044E-1,1.9126038E-1,1.812363E-1,4.239708E-2,1.4819768E-1,1.834727E-1,9.649262E-2,1.977147E-1,1.7239118E-1,1.9737765E-1,1.79751E-1,1.549224E-1,5.1008034E-2,2.012509E-1,1.7352898E-1,1.315712E-1,1.7229198E-1,1.0607978E-1,1.7525159E-1,1.454586E-1,1.4193046E-1,1.6375469E-1,1.7779607E-1,1.1288929E-1,1.535733E-1,1.0122097E-1,1.6236882E-1,9.2813455E-2,1.562965E-1,1.7424121E-1,1.392308E-1,-2.3565812E-1,-2.3528303E-1,1.7005464E-1,5.6608118E-2,1.5104152E-1,1.7452072E-1,1.4251167E-1,6.560709E-2,1.7272629E-1,1.6766395E-1,1.8515067E-1,1.7933652E-1,1.241996E-1,1.4100353E-1,3.9437834E-2,1.4418977E-1,1.076838E-1,1.1072119E-1,1.3808845E-1,1.4251001E-1,7.413874E-2,1.317391E-1,1.6105367E-1,1.7988713E-1,1.3476118E-1],"categories":[],"categories_nodes":[],"categories_segments":[],"categories_sizes":[],"default_left":[0,1,0,0,0,0,0,0,0,0,0,0,0,0,0,0,0,0,0,0,0,0,0,0,0,0,0,0,0,0,0,0,0,0,0,0,0,0,0,0,0,0,0,0,0,0,0,0,0,0,0,0,0,0,0,0,0,0,0,0,0,0,0,0,0,0,0,0,0,0,0,0,0,0,0,0,0,0,0,0,0,0,0,0,0,0,0,0,0,0,0,0,0,0,0,0,0,0,0,0,0,0,0,0,0,0,0,0,0,0,0,1,0,0,0,0,0,0,0,0,0,0,0,0,0,0,0,0,0,0,0,0,0,0,0,0,0,0,0,0,0,0,0,0,0,0,0,0,0,0,0,0,0,0,0,0,0,0,0,0,0,0,0,0,0,0,0,0,0,0,0,0,0,0,0,0,0,0,0,0,0,0,0,0,0,0,0,0,0,0,0,0,0,0,0,0,0,0,0,0,0,0,0,0,0,0,0,0,0,0,0,0,0,0,0,0,0,0,0,0,0,0,0,0,0,0,0,0,0,0,0,0,0,0,0,0,0,0,0,0,0,0,0,0,0,0,0,0,0,0,0,0,0,0,0,0,0,0,0,0,0,0,0,0,0,0,0,0,0,0,0,0,0,0,0,0,0,0,0,0,0,0,0,0,0,0,0,0,0,0,0,0,0,0,0,0,0,0,0,0,0,0,0,0,0,0,0,0,0,0,0,0,0,0,0,0,0,0,0,0,0,0,0,0,0,0,0,0,0,0,0,0,0,0,0,0,0,0,0,0,0,0,0,0,0,0,0,0,0,0,0,0,0,0,0,0,0,0,0,0,0,0,0,0,0,0,0,0,0,0,0,0,0,0,0,0,0,0,0,0,0,0,0,0,0,0,0,0,0,0,0,0,0,0,0,0,0,0,0,0,0,0,0,0,0,0,0,0,0,0,0,0,0,0,0,0,0,0,0,0,0,0,0,0,0,0,0,0,0,0,0,0,0,0,0,0,0,0,0,0,0,0,0,0,0,0,0,0,0,0,0,0,0,0,0,0,0,0,0,0,0,0,0,0,0,0,0,0,0,0,0,0,0,0,0,0,0,0,0,0,0,0,0,0,0,0,0,0,0,0,0,0,0,0,0,0,0,0,0,0,0,0,0,0,0,0,0,0,0,0,0,0,0,0,0,0,0,0,0,0,0,0,0,0,0,0,0,0,0,0,0,0,0,0,0,0,0,0,0,0,0,0,0,0,0,0,0,0,0,0,0,0,0,0,0,0,0,0,0,0,0,0,0,0,0,0,0,0,0,0,0,0,0,0,0,0,0,0,0,0,0,0,0,0,0,0,0,0,0,0,0,0,0,0,0,0,0,0,0,0,0,0,0,0,0,0,0,0,0,0,0,0,0,0,0,0,0,0,0,0,0,0,0,0,0,0,0,0,0,0,0,0,0,0,0,0,0,0,0,0,0,0,0,0,0,0,0,0,0,0,0,0,0,0,0,0,0,0,0,0,0,0,0,0,0,0,0,0,0,0,0,0,0,0,0,0,0,0,0,0,0,0,0],"id":1,"left_children":[1,3,5,7,9,11,13,15,17,19,21,23,25,27,29,31,33,35,37,39,41,43,45,47,49,51,53,55,57,59,61,63,65,67,69,71,73,75,77,79,81,83,85,87,89,91,93,95,97,99,101,103,105,107,109,111,113,115,117,-1,119,121,123,125,127,129,131,-1,133,135,137,139,141,143,145,147,149,151,153,155,157,159,-1,161,-1,163,165,167,169,171,173,175,-1,177,179,181,183,185,-1,-1,-1,187,189,191,193,195,197,199,201,203,-1,205,207,209,211,-1,213,215,217,219,221,223,225,227,229,231,233,-1,235,237,239,241,243,245,247,249,-1,251,253,255,257,259,261,263,265,267,269,271,273,275,277,279,281,283,285,287,289,291,293,295,297,299,301,303,-1,-1,305,307,309,311,313,315,317,319,321,323,325,327,329,331,333,335,337,339,-1,-1,-1,341,343,345,347,349,351,353,355,-1,-1,357,-1,359,361,363,365,-1,367,369,371,373,375,377,379,-1,381,383,385,387,-1,389,391,-1,393,395,397,-1,399,401,-1,-1,403,405,407,409,-1,411,413,-1,415,417,419,421,423,425,427,429,431,433,435,437,439,441,443,445,447,449,451,453,455,-1,-1,457,459,461,463,465,-1,467,469,471,473,475,477,-1,-1,479,481,483,485,487,489,491,493,495,497,499,501,503,505,507,509,-1,511,513,515,517,519,521,523,525,527,529,531,-1,533,535,537,-1,539,541,543,545,-1,547,549,551,553,555,-1,557,-1,559,561,563,565,567,569,571,573,575,577,579,-1,581,583,585,587,-1,-1,-1,589,591,593,595,597,599,601,603,-1,-1,605,607,-1,-1,609,-1,611,613,615,-1,-1,-1,-1,617,619,621,-1,-1,-1,-1,623,625,627,629,631,-1,633,635,637,639,641,643,-1,645,647,-1,-1,649,651,653,655,657,659,661,663,665,-1,-1,667,669,-1,-1,-1,-1,-1,671,673,675,677,679,681,-1,-1,-1,-1,-1,-1,-1,-1,-1,-1,-1,-1,-1,-1,-1,-1,-1,-1,-1,-1,-1,-1,-1,-1,-1,-1,-1,-1,-1,-1,-1,-1,-1,-1,-1,-1,-1,-1,-1,-1,-1,-1,-1,-1,-1,-1,-1,-1,-1,-1,-1,-1,-1,-1,-1,-1,-1,-1,-1,-1,-1,-1,-1,-1,-1,-1,-1,-1,-1,-1,-1,-1,-1,-1,-1,-1,-1,-1,-1,-1,-1,-1,-1,-1,-1,-1,-1,-1,-1,-1,-1,-1,-1,-1,-1,-1,-1,-1,-1,-1,-1,-1,-1,-1,-1,-1,-1,-1,-1,-1,-1,-1,-1,-1,-1,-1,-1,-1,-1,-1,-1,-1,-1,-1,-1,-1,-1,-1,-1,-1,-1,-1,-1,-1,-1,-1,-1,-1,-1,-1,-1,-1,-1,-1,-1,-1,-1,-1,-1,-1,-1,-1,-1,-1,-1,-1,-1,-1,-1,-1,-1,-1,-1,-1,-1,-1,-1,-1,-1,-1,-1,-1,-1,-1,-1,-1,-1,-1,-1,-1,-1,-1,-1,-1,-1,-1,-1,-1,-1,-1,-1,-1,-1,-1,-1,-1,-1,-1,-1,-1,-1,-1,-1,-1,-1,-1,-1,-1,-1,-1,-1,-1,-1,-1,-1,-1,-1,-1,-1,-1,-1,-1,-1,-1,-1,-1,-1,-1,-1,-1,-1,-1,-1,-1,-1,-1,-1,-1,-1,-1,-1,-1,-1,-1,-1,-1,-1,-1,-1,-1,-1,-1,-1,-1,-1,-1,-1,-1,-1,-1,-1,-1,-1,-1,-1,-1,-1,-1,-1,-1,-1,-1,-1,-1],"loss_changes":[2.2895962E5,1.5597316E4,5.15375E3,2.6165062E4,7.0419453E3,5.0894336E2,1.2547344E3,8.862129E2,1.1986635E4,1.4215796E3,4.412629E3,4.137367E2,1.1215332E2,7.355469E1,4.4865625E2,5.743047E2,3.06292E2,5.3193345E3,1.5384777E4,1.0371073E3,8.280591E1,4.497918E3,6.716167E2,7.105151E1,2.0769135E2,9.9929565E1,3.3351733E2,7.797656E1,1.1797656E2,2.7187988E1,1.7326172E2,3.7681775E2,4.0269336E2,3.3856384E2,4.906836E1,3.35469E2,5.1675225E3,4.8966445E3,1.3984481E4,1.00123834E3,2.567635E2,1.7182303E2,5.97157E1,2.864961E3,2.6638599E3,4.39494E2,3.6275195E2,5.2622192E1,1.6238814E2,7.878859E1,1.7491101E2,3.1142334E1,8.175104E1,1.9659961E2,2.897662E2,7.466406E1,1.2819922E2,3.824248E2,5.398242E1,0E0,8.902344E0,8.835205E0,1.316836E2,1.9954688E2,4.569037E2,3.9868848E2,2.819712E2,0E0,1.1895538E2,1.1641382E2,6.122827E1,2.858628E2,1.8926318E2,1.9951844E3,2.969002E3,1.753009E3,1.7968203E3,2.563213E2,8.33478E2,2.8130298E2,8.1375195E2,3.091231E2,0E0,1.4266034E2,0E0,4.790149E1,5.3188385E1,9.477948E2,1.6420938E3,2.8147407E3,2.879958E3,3.9417957E2,0E0,1.1524664E2,6.957982E2,3.3463318E1,3.8518738E1,5.31784E1,0E0,0E0,0E0,2.4200769E2,2.4620378E2,4.829242E1,2.1387451E1,1.9956802E1,1.9010695E2,2.179808E2,8.311084E1,1.885119E2,0E0,3.1011719E1,4.164453E1,9.012207E1,1.0816016E2,0E0,2.0390234E2,4.3720703E1,6.843359E1,5.7870605E1,4.5234375E0,9.251709E-1,1.7312439E1,2.2211914E2,2.1267188E2,1.2175365E2,6.381018E1,0E0,2.9190228E2,2.6333447E2,3.2288934E2,3.1431982E2,2.4592456E2,5.952043E1,6.0434082E1,5.037744E1,0E0,6.385193E0,5.1578125E1,1.5947192E2,5.5702133E1,2.3868507E2,2.1665088E2,1.8670923E2,3.5845386E2,1.3693456E3,1.2381035E3,1.354248E0,1.2866484E3,1.3760273E3,1.5023403E3,1.929414E2,1.4324112E2,3.9076276E2,1.0148086E3,1.618135E2,3.0839172E2,2.727031E2,2.3275934E2,3.857433E2,1.7896606E2,1.3037048E2,2.4977417E0,7.3184814E0,0E0,0E0,2.3868066E2,9.190893E2,6.798467E2,1.0934688E3,5.786172E2,2.9212427E2,2.9742773E2,5.208789E2,1.099153E3,4.912E2,4.975661E2,3.0660706E1,1.7688664E2,4.676587E1,1.7816351E2,2.761882E1,8.512451E0,4.973987E1,0E0,0E0,0E0,8.661975E1,3.9892896E2,2.4616779E2,1.3291412E2,6.965061E1,2.400769E1,4.5201828E1,3.32312E0,0E0,0E0,3.4613823E1,0E0,9.489923E1,1.4139041E2,8.400195E1,2.5963745E0,0E0,1.8718979E2,1.08515625E1,2.7197266E1,2.44017E2,3.8964844E1,1.2120264E2,4.5466614E2,0E0,7.635547E1,1.6535492E2,4.638086E1,2.6019531E1,0E0,7.6471954E1,4.5151123E1,0E0,2.5973145E1,4.0095215E0,9.33136E0,0E0,6.760254E-1,8.467407E-1,0E0,0E0,4.8640625E1,1.5597852E2,5.4771484E1,7.2707436E1,0E0,1.2024463E2,2.9167252E1,0E0,1.857073E2,2.6897803E2,2.00169E2,1.6439508E2,4.667755E1,2.4281311E2,4.4810132E2,2.2921997E2,2.0287366E2,1.3831959E0,9.6283615E1,6.568182E1,9.287637E1,2.0065186E1,3.5379242E1,7.657257E0,8.309181E0,1.4815815E1,4.4048035E1,2.5144489E2,1.4135352E2,0E0,0E0,1.7535431E2,7.366472E1,1.7963562E2,5.408539E1,3.6308008E2,0E0,4.1371234E2,9.185825E2,6.381389E2,1.1253018E3,1.5939717E3,5.676252E2,0E0,0E0,1.1439196E3,1.3367163E3,8.926914E2,1.8682969E3,2.6192682E2,1.0915609E3,2.619751E2,1.0989722E2,1.27595215E2,2.311616E2,3.552735E2,1.2347668E3,1.1376704E3,3.7776486E2,2.0840544E2,8.0637146E1,0E0,1.4796143E1,2.1207935E2,4.6851813E2,3.408095E1,2.687079E2,1.952474E2,3.0413202E2,2.5254727E2,8.708423E1,4.2104126E1,1.556144E2,0E0,7.776947E-1,6.892746E0,3.680664E0,0E0,3.235016E1,4.8656E2,7.0071893E2,6.1473755E2,0E0,1.4523398E3,7.4531055E2,7.6012964E2,5.883412E2,3.007826E2,0E0,7.971802E2,0E0,5.416655E2,3.1886133E2,4.979884E2,8.0219635E2,7.004949E2,2.5116577E1,5.0338257E1,2.278992E2,2.6107687E2,3.74823E0,5.0812004E1,0E0,5.835199E1,1.05916336E2,2.2434998E0,1.4913531E2,0E0,0E0,0E0,5.9856567E0,4.667279E1,1.36539E1,1.345532E2,1.3043481E2,2.9082745E2,3.3423346E2,1.6757117E2,0E0,0E0,1.8283513E2,2.4680885E1,0E0,0E0,1.2069611E1,0E0,2.509076E1,1.2789368E1,1.1906433E0,0E0,0E0,0E0,0E0,1.01753235E1,5.977597E1,7.692407E1,0E0,0E0,0E0,0E0,1.7455632E2,2.3407227E1,5.8535156E0,1.6109265E2,2.0086914E1,0E0,4.010898E1,7.390869E0,3.1554688E1,1.22911835E2,3.8378906E1,2.3029694E1,0E0,8.4578125E1,6.723047E1,0E0,0E0,5.3070923E1,1.4876953E2,6.176184E1,2.3211914E1,3.1311862E2,3.3339767E2,7.850061E1,3.011206E1,1.8634277E1,0E0,0E0,4.3967285E0,9.853851E0,0E0,0E0,0E0,0E0,0E0,7.121631E1,1.5974219E2,1.1421387E2,6.0838867E1,3.4558105E1,7.053711E1,0E0,0E0,0E0,0E0,0E0,0E0,0E0,0E0,0E0,0E0,0E0,0E0,0E0,0E0,0E0,0E0,0E0,0E0,0E0,0E0,0E0,0E0,0E0,0E0,0E0,0E0,0E0,0E0,0E0,0E0,0E0,0E0,0E0,0E0,0E0,0E0,0E0,0E0,0E0,0E0,0E0,0E0,0E0,0E0,0E0,0E0,0E0,0E0,0E0,0E0,0E0,0E0,0E0,0E0,0E0,0E0,0E0,0E0,0E0,0E0,0E0,0E0,0E0,0E0,0E0,0E0,0E0,0E0,0E0,0E0,0E0,0E0,0E0,0E0,0E0,0E0,0E0,0E0,0E0,0E0,0E0,0E0,0E0,0E0,0E0,0E0,0E0,0E0,0E0,0E0,0E0,0E0,0E0,0E0,0E0,0E0,0E0,0E0,0E0,0E0,0E0,0E0,0E0,0E0,0E0,0E0,0E0,0E0,0E0,0E0,0E0,0E0,0E0,0E0,0E0,0E0,0E0,0E0,0E0,0E0,0E0,0E0,0E0,0E0,0E0,0E0,0E0,0E0,0E0,0E0,0E0,0E0,0E0,0E0,0E0,0E0,0E0,0E0,0E0,0E0,0E0,0E0,0E0,0E0,0E0,0E0,0E0,0E0,0E0,0E0,0E0,0E0,0E0,0E0,0E0,0E0,0E0,0E0,0E0,0E0,0E0,0E0,0E0,0E0,0E0,0E0,0E0,0E0,0E0,0E0,0E0,0E0,0E0,0E0,0E0,0E0,0E0,0E0,0E0,0E0,0E0,0E0,0E0,0E0,0E0,0E0,0E0,0E0,0E0,0E0,0E0,0E0,0E0,0E0,0E0,0E0,0E0,0E0,0E0,0E0,0E0,0E0,0E0,0E0,0E0,0E0,0E0,0E0,0E0,0E0,0E0,0E0,0E0,0E0,0E0,0E0,0E0,0E0,0E0,0E0,0E0,0E0,0E0,0E0,0E0,0E0,0E0,0E0,0E0,0E0,0E0,0E0,0E0,0E0,0E0,0E0,0E0,0E0,0E0,0E0,0E0,0E0,0E0,0E0,0E0,0E0,0E0,0E0,0E0,0E0,0E0,0E0,0E0,0E0,0E0,0E0,0E0,0E0,0E0,0E0,0E0,0E0,0E0,0E0,0E0,0E0,0E0,0E0,0E0,0E0,0E0,0E0,0E0,0E0],"parents":[2147483647,0,0,1,1,2,2,3,3,4,4,5,5,6,6,7,7,8,8,9,9,10,10,11,11,12,12,13,13,14,14,15,15,16,16,17,17,18,18,19,19,20,20,21,21,22,22,23,23,24,24,25,25,26,26,27,27,28,28,29,29,30,30,31,31,32,32,33,33,34,34,35,35,36,36,37,37,38,38,39,39,40,40,41,41,42,42,43,43,44,44,45,45,46,46,47,47,48,48,49,49,50,50,51,51,52,52,53,53,54,54,55,55,56,56,57,57,58,58,60,60,61,61,62,62,63,63,64,64,65,65,66,66,68,68,69,69,70,70,71,71,72,72,73,73,74,74,75,75,76,76,77,77,78,78,79,79,80,80,81,81,83,83,85,85,86,86,87,87,88,88,89,89,90,90,91,91,93,93,94,94,95,95,96,96,97,97,101,101,102,102,103,103,104,104,105,105,106,106,107,107,108,108,109,109,111,111,112,112,113,113,114,114,116,116,117,117,118,118,119,119,120,120,121,121,122,122,123,123,124,124,125,125,126,126,128,128,129,129,130,130,131,131,132,132,133,133,134,134,135,135,137,137,138,138,139,139,140,140,141,141,142,142,143,143,144,144,145,145,146,146,147,147,148,148,149,149,150,150,151,151,152,152,153,153,154,154,155,155,156,156,157,157,158,158,159,159,160,160,161,161,162,162,163,163,166,166,167,167,168,168,169,169,170,170,171,171,172,172,173,173,174,174,175,175,176,176,177,177,178,178,179,179,180,180,181,181,182,182,183,183,187,187,188,188,189,189,190,190,191,191,192,192,193,193,194,194,197,197,199,199,200,200,201,201,202,202,204,204,205,205,206,206,207,207,208,208,209,209,210,210,212,212,213,213,214,214,215,215,217,217,218,218,220,220,221,221,222,222,224,224,225,225,228,228,229,229,230,230,231,231,233,233,234,234,236,236,237,237,238,238,239,239,240,240,241,241,242,242,243,243,244,244,245,245,246,246,247,247,248,248,249,249,250,250,251,251,252,252,253,253,254,254,255,255,256,256,259,259,260,260,261,261,262,262,263,263,265,265,266,266,267,267,268,268,269,269,270,270,273,273,274,274,275,275,276,276,277,277,278,278,279,279,280,280,281,281,282,282,283,283,284,284,285,285,286,286,287,287,288,288,290,290,291,291,292,292,293,293,294,294,295,295,296,296,297,297,298,298,299,299,300,300,302,302,303,303,304,304,306,306,307,307,308,308,309,309,311,311,312,312,313,313,314,314,315,315,317,317,319,319,320,320,321,321,322,322,323,323,324,324,325,325,326,326,327,327,328,328,329,329,331,331,332,332,333,333,334,334,338,338,339,339,340,340,341,341,342,342,343,343,344,344,345,345,348,348,349,349,352,352,354,354,355,355,356,356,361,361,362,362,363,363,368,368,369,369,370,370,371,371,372,372,374,374,375,375,376,376,377,377,378,378,379,379,381,381,382,382,385,385,386,386,387,387,388,388,389,389,390,390,391,391,392,392,393,393,396,396,397,397,403,403,404,404,405,405,406,406,407,407,408,408],"right_children":[2,4,6,8,10,12,14,16,18,20,22,24,26,28,30,32,34,36,38,40,42,44,46,48,50,52,54,56,58,60,62,64,66,68,70,72,74,76,78,80,82,84,86,88,90,92,94,96,98,100,102,104,106,108,110,112,114,116,118,-1,120,122,124,126,128,130,132,-1,134,136,138,140,142,144,146,148,150,152,154,156,158,160,-1,162,-1,164,166,168,170,172,174,176,-1,178,180,182,184,186,-1,-1,-1,188,190,192,194,196,198,200,202,204,-1,206,208,210,212,-1,214,216,218,220,222,224,226,228,230,232,234,-1,236,238,240,242,244,246,248,250,-1,252,254,256,258,260,262,264,266,268,270,272,274,276,278,280,282,284,286,288,290,292,294,296,298,300,302,304,-1,-1,306,308,310,312,314,316,318,320,322,324,326,328,330,332,334,336,338,340,-1,-1,-1,342,344,346,348,350,352,354,356,-1,-1,358,-1,360,362,364,366,-1,368,370,372,374,376,378,380,-1,382,384,386,388,-1,390,392,-1,394,396,398,-1,400,402,-1,-1,404,406,408,410,-1,412,414,-1,416,418,420,422,424,426,428,430,432,434,436,438,440,442,444,446,448,450,452,454,456,-1,-1,458,460,462,464,466,-1,468,470,472,474,476,478,-1,-1,480,482,484,486,488,490,492,494,496,498,500,502,504,506,508,510,-1,512,514,516,518,520,522,524,526,528,530,532,-1,534,536,538,-1,540,542,544,546,-1,548,550,552,554,556,-1,558,-1,560,562,564,566,568,570,572,574,576,578,580,-1,582,584,586,588,-1,-1,-1,590,592,594,596,598,600,602,604,-1,-1,606,608,-1,-1,610,-1,612,614,616,-1,-1,-1,-1,618,620,622,-1,-1,-1,-1,624,626,628,630,632,-1,634,636,638,640,642,644,-1,646,648,-1,-1,650,652,654,656,658,660,662,664,666,-1,-1,668,670,-1,-1,-1,-1,-1,672,674,676,678,680,682,-1,-1,-1,-1,-1,-1,-1,-1,-1,-1,-1,-1,-1,-1,-1,-1,-1,-1,-1,-1,-1,-1,-1,-1,-1,-1,-1,-1,-1,-1,-1,-1,-1,-1,-1,-1,-1,-1,-1,-1,-1,-1,-1,-1,-1,-1,-1,-1,-1,-1,-1,-1,-1,-1,-1,-1,-1,-1,-1,-1,-1,-1,-1,-1,-1,-1,-1,-1,-1,-1,-1,-1,-1,-1,-1,-1,-1,-1,-1,-1,-1,-1,-1,-1,-1,-1,-1,-1,-1,-1,-1,-1,-1,-1,-1,-1,-1,-1,-1,-1,-1,-1,-1,-1,-1,-1,-1,-1,-1,-1,-1,-1,-1,-1,-1,-1,-1,-1,-1,-1,-1,-1,-1,-1,-1,-1,-1,-1,-1,-1,-1,-1,-1,-1,-1,-1,-1,-1,-1,-1,-1,-1,-1,-1,-1,-1,-1,-1,-1,-1,-1,-1,-1,-1,-1,-1,-1,-1,-1,-1,-1,-1,-1,-1,-1,-1,-1,-1,-1,-1,-1,-1,-1,-1,-1,-1,-1,-1,-1,-1,-1,-1,-1,-1,-1,-1,-1,-1,-1,-1,-1,-1,-1,-1,-1,-1,-1,-1,-1,-1,-1,-1,-1,-1,-1,-1,-1,-1,-1,-1,-1,-1,-1,-1,-1,-1,-1,-1,-1,-1,-1,-1,-1,-1,-1,-1,-1,-1,-1,-1,-1,-1,-1,-1,-1,-1,-1,-1,-1,-1,-1,-1,-1,-1,-1,-1,-1,-1,-1,-1,-1,-1,-1,-1,-1,-1,-1,-1,-1,-1,-1,-1,-1,-1,-1,-1,-1,-1,-1,-1,-1,-1,-1,-1],"split_conditions":[5.3E1,1E0,5.9E1,1E0,1E0,-1.93E0,2.0585E4,1.00099E5,1.00099E5,3.5E1,4.3E1,1E0,1E0,1.598E4,1E0,4E0,-9.69E0,1E0,-1.42E0,-1.176E1,1E0,-8E-2,4.8E1,5E-1,2.8E1,7.3E1,7.428E1,6.3E1,1.12E2,-5.0731E2,1E0,-5.098E1,1E0,7.38E0,1E0,1E0,-1.4966E2,-1.2381E2,1.1E1,6E0,9.3E-1,7.4E0,-4.27E1,-1.9381E2,9E0,0E0,-1.726E2,1E0,2.5E1,2.046E1,-1.538E1,5.4E1,-3E-2,3.5E1,-1E-2,-6E-2,6.456E1,-6.939E2,-3E-2,4.7095682E-2,1.24E2,6.516E1,8.7E1,7.982E3,2.482E3,3.1E1,1E0,-2.1286513E-1,4E0,2.15E0,1.01995E5,8.37E1,4.9E1,1.4E1,1E0,1.01846E5,8.808E1,9E0,4.241E1,6.069E1,6.97E1,1.503E4,-2.0609364E-1,1.11917E5,-2.1550253E-1,1.16686E5,2.242E1,1.2839E4,3.2E1,1.01362E5,1.06019E5,1.3797E4,-2.1283603E-1,6.817E1,1.3797E4,9.527E3,7.43E0,4.65E1,-2.2035025E-1,2.1941762E-2,-2.1710114E-1,6.908E1,1E0,5.235E1,9.067E3,7.668E1,1E0,5.4E1,2.2E2,3.281E3,-2.0299129E-1,1E0,1.64E2,6.419E1,5.2E1,-2.1067558E-1,1.6131E4,8.665E1,1E0,1.00099E5,7.134E1,2.98E1,0E0,2.046E1,2.00001E0,4E0,4E0,-2.0260522E-1,7.9E0,1.9658E4,1.8469E4,1.7E1,9.216E3,1.04929E5,1.17334E5,1E0,-5.3289276E-2,2E1,3E0,0E0,1E0,1.5824E4,3E0,2.0442E4,2.4E1,1.3E1,4.6E1,1E0,1E0,1E0,1.09874E5,1E0,1.11584E5,2.2E1,4E1,1E0,4.69E2,1E0,-4E1,2.652E3,3.66E1,4E1,1.1347E5,3.7E1,2.078344E-2,2.1278659E-1,1.05854E5,1.8E1,1.18451E5,1.12996E5,1.16523E5,1.6445E4,1.19228E5,4.829E3,1.09376E5,7.656E3,1.4422E4,1.15737E5,1.08084E5,5.2E1,1.4262E4,3.123E3,1E0,1E0,-1.559404E-2,-8.000892E-3,1.8314351E-1,1.4422E4,1.0155E4,1.10981E5,2.969E3,1.11282E5,1E0,2.00001E0,1.07445E5,1.8160957E-1,5.2224025E-2,1E0,-2.1651699E-1,1.12066E5,1.5188E4,1E0,2.15E0,-2.1811618E-1,3.437E3,1.02E2,9.5E1,1.24E2,3.19E2,1.02E2,2.00001E0,-4.0571213E-2,6.566E3,1.04E2,6.9E1,1.6908E4,8.937863E-2,1.82E2,2.00001E0,2.3847367E-3,1.19228E5,1E0,1.14261E5,1.9807212E-1,7.3E1,7.5E1,6.5137394E-2,-2.1233557E-1,1.02341E5,1.14261E5,1.07132E5,2E0,-2.2103441E-1,5.467E1,5.5E1,-2.146505E-1,1.33E2,7.134E1,-3.5E0,2.87E1,4.3E1,4.621E1,4.174E1,7.266E1,6.533E1,6.908E1,7.913E1,6.516E1,2.1E1,7.26E0,2.5E1,5.632E1,6.628E1,1E0,7.913E1,2.325E1,1E0,-1.8880859E-2,-2.1932156E-1,7.8E1,3.55E1,1.55E1,0E0,1E0,-2.1104288E-1,8.334E1,4.765E1,2.242E1,5.7E1,1.7E1,1E0,-1.9647543E-1,-2.0663303E-1,8.124E1,5.537E1,1E0,4E1,2.6E1,4.3E1,8.305E1,5E0,2.6E1,4.949E1,2.7E1,3.997E1,1.7E1,6.908E1,1E0,2E0,1.6275774E-1,7.698E1,1.21E2,1.6E1,4.1E1,8.3E1,2.4E1,7.913E1,7.29E0,2.3E1,8.7E1,4.7E1,2.08563E-1,4.5E1,8.205E1,1.5E0,-2.1576424E-1,4.1E1,5.764E1,3.1E1,8.247E1,-2.1016535E-1,7.7E1,8.519E1,1E0,1.92E1,7.428E1,-2.1138972E-1,7.636E1,-2.2974457E-1,6.494E1,1.2E1,4.824E1,8.519E1,6.382E1,7.978E1,6.456E1,8.6E1,5.19E1,2.046E1,1E0,-2.2119315E-1,7.978E1,6.382E1,6.854E1,8.519E1,1.5463674E-1,2.6334748E-3,1.2621044E-1,-1.5E0,4.598E1,1E0,5.2E1,6.6E1,8.37E1,8.793E1,5.313E1,-2.0581654E-1,-2.1369179E-1,8E1,4.949E1,1.8497567E-1,3.3252206E-2,5.2E1,-3.5075138E-3,5.048E1,5.136E1,1E0,1.8802336E-1,1.3964284E-2,-2.1211013E-1,5.8427855E-2,2.242E1,2.242E1,4.241E1,-6.0528014E-2,1.593072E-1,1.9588378E-1,2.0604748E-1,5.2E1,1.35E1,5.724E1,4.174E1,1E0,-2.3621067E-1,2.8E1,8.6E1,1E0,6.4E1,6.343E1,7.3E1,-2.3520833E-1,6.578E1,6.7E1,-2.3627155E-1,1.1114012E-1,3.438E1,7.508E1,6.97E1,5.764E1,5.467E1,5.048E1,1.8E2,7.327E1,2.73E1,7.946385E-2,1.9604646E-1,5.632E1,1E0,1.9512992E-1,1.7245595E-1,1.9071877E-1,1.9735144E-1,1.7075442E-1,7.202E1,4.241E1,2.15E2,8.028E1,4.538E1,3.062E1,-9.306276E-2,7.927671E-2,-6.156911E-2,1.4156258E-1,-4.424791E-2,6.928633E-2,1.5256917E-2,-2.1368064E-1,1.0733373E-1,6.264001E-2,1.7551853E-1,-1.5022886E-1,-2.19292E-1,5.1216733E-2,-2.2062059E-1,-6.499598E-2,-3.776698E-2,7.058147E-2,-1.5227534E-1,2.2320988E-2,6.4832814E-2,1.1115319E-1,-2.2002336E-1,4.9387477E-2,4.272706E-2,8.19894E-2,-2.1018276E-1,8.469566E-2,3.4299854E-2,1.0381118E-1,1.2133403E-2,1.7948742E-1,5.243743E-2,1.5750693E-1,1.230026E-1,2.009588E-2,1.4369464E-1,1.9688365E-1,7.986963E-2,1.7119275E-1,-3.8976766E-2,5.7975806E-2,1.15079954E-1,-1.7535591E-2,-1.4416546E-1,1.4522739E-1,1.270546E-1,7.529561E-2,-2.1529752E-1,4.2181343E-2,1.5299663E-1,-4.4086255E-2,-2.0158041E-2,5.0894663E-2,1.6109729E-1,9.1028124E-2,4.8555214E-2,9.943792E-2,3.7228797E-2,-1.4043716E-1,-1.3661404E-1,1.5435491E-3,-1.8012063E-1,1.8613685E-2,-4.903533E-2,-6.102776E-3,-2.976201E-2,-6.2800646E-2,-4.064218E-2,4.1400053E-2,2.6626082E-2,-1.4665695E-1,-1.6125527E-1,-2.5987942E-2,-3.097542E-2,-9.2329234E-2,-1.281407E-1,-3.7273824E-2,2.6752308E-3,7.9132676E-2,-1.5417325E-1,1.110107E-1,1.1246774E-1,-1.4440053E-2,6.5015964E-2,9.815221E-2,-2.0074813E-1,7.78605E-2,-1.4926468E-1,3.7470445E-2,-8.835727E-2,5.1002547E-2,-1.095801E-1,7.848303E-2,-3.736879E-2,-1.1332477E-1,7.1843006E-3,-8.276332E-2,1.1024013E-1,-2.0770659E-1,-2.0231709E-1,-7.028068E-2,-2.0204988E-1,-1.6159308E-1,1.05924085E-1,-2.167642E-1,-8.53088E-2,8.0117635E-2,2.5025424E-2,2.0019975E-1,-1.6934066E-1,-5.051933E-3,2.0684872E-2,1.8156308E-1,-8.9174695E-2,7.754046E-2,1.2152857E-1,-2.1244939E-1,1.05932556E-1,3.1003445E-2,7.942948E-2,2.0416555E-1,-2.1787485E-1,9.4834015E-2,1.660885E-1,1.890283E-1,1.1098207E-1,1.8253127E-1,1.4626084E-1,1.8522063E-1,7.5474724E-2,1.5275681E-1,1.4758658E-1,1.7224835E-2,-1.6401543E-1,2.8681189E-2,-6.3527845E-2,4.1337185E-2,-1.3017552E-1,-8.1808224E-2,-8.9896105E-2,2.6695276E-2,-9.9104986E-2,-4.1476347E-2,1.8164074E-1,-1.6219641E-1,-1.1459602E-1,6.0687606E-5,1.1247377E-1,-2.2484924E-1,4.4247117E-3,-1.2470219E-1,-7.039967E-2,-1.4062388E-1,-9.6270345E-2,1.0967828E-1,-4.8942935E-2,1.6823673E-1,7.06503E-2,-1.4866087E-1,-2.0724884E-1,-1.3784082E-1,1.4519408E-2,1.7771572E-1,-1.0256214E-2,-2.1429913E-1,-1.9449055E-1,1.4101066E-1,2.0434539E-1,1.6132504E-1,-3.7969172E-2,1.14063255E-1,-2.1204087E-1,-6.0061563E-2,2.1577436E-2,-2.149097E-1,1.8776898E-1,1.5326364E-1,3.609153E-2,-2.1463367E-1,2.0355149E-1,1.6736035E-1,-3.3101123E-2,1.0455283E-1,1.8432651E-1,8.492976E-2,-1.1482346E-1,5.5871908E-2,6.8905845E-2,1.3164322E-1,1.0441602E-1,-2.1324995E-1,-6.149178E-2,1.3728E-1,-2.179054E-1,1.5234686E-2,1.9893661E-2,1.2099068E-1,-7.30289E-2,7.561568E-2,1.7724046E-1,1.2782703E-1,4.1538946E-2,1.6899033E-1,1.1695918E-1,1.7628787E-1,2.0960453E-1,1.8099073E-1,1.6320011E-1,1.03112444E-1,3.4177475E-2,-2.1337302E-1,1.4175628E-1,9.8371565E-2,1.3194388E-1,-4.49432E-3,5.389958E-2,1.7120424E-1,1.7721044E-1,1.9126038E-1,1.812363E-1,4.239708E-2,1.4819768E-1,1.834727E-1,9.649262E-2,1.977147E-1,1.7239118E-1,1.9737765E-1,1.79751E-1,1.549224E-1,5.1008034E-2,2.012509E-1,1.7352898E-1,1.315712E-1,1.7229198E-1,1.0607978E-1,1.7525159E-1,1.454586E-1,1.4193046E-1,1.6375469E-1,1.7779607E-1,1.1288929E-1,1.535733E-1,1.0122097E-1,1.6236882E-1,9.2813455E-2,1.562965E-1,1.7424121E-1,1.392308E-1,-2.3565812E-1,-2.3528303E-1,1.7005464E-1,5.6608118E-2,1.5104152E-1,1.7452072E-1,1.4251167E-1,6.560709E-2,1.7272629E-1,1.6766395E-1,1.8515067E-1,1.7933652E-1,1.241996E-1,1.4100353E-1,3.9437834E-2,1.4418977E-1,1.076838E-1,1.1072119E-1,1.3808845E-1,1.4251001E-1,7.413874E-2,1.317391E-1,1.6105367E-1,1.7988713E-1,1.3476118E-1],"split_indices":[38,36,38,50,40,37,39,39,39,73,73,59,50,39,50,0,37,52,37,37,52,37,0,65,33,33,33,33,0,37,40,37,36,12,59,36,37,37,38,0,37,12,37,37,38,37,37,52,10,33,37,0,37,33,37,37,33,37,37,0,0,33,38,39,39,73,34,0,73,22,39,33,17,38,36,39,33,38,33,33,33,39,0,39,0,39,33,39,73,39,39,39,0,33,39,39,12,13,0,0,0,33,36,33,39,33,36,73,17,39,0,36,39,33,73,0,39,33,34,39,33,27,97,33,36,38,38,0,18,39,39,0,39,39,39,40,0,0,0,64,62,39,97,39,38,38,38,36,36,36,39,36,39,0,38,52,39,52,75,39,3,0,39,0,0,0,39,38,39,39,39,39,39,39,39,39,39,39,39,38,39,39,60,84,0,0,0,39,39,39,39,39,52,36,39,0,0,52,0,39,39,9,22,0,39,0,38,0,39,0,36,0,39,38,38,39,0,38,36,0,39,52,39,0,0,5,0,0,39,39,39,0,0,33,33,0,4,33,65,27,0,33,33,33,5,33,33,33,0,12,0,33,33,34,33,7,40,0,0,33,13,16,70,34,0,33,33,33,33,0,34,0,0,33,33,59,0,0,0,33,0,33,33,33,33,0,33,59,0,0,33,4,0,16,33,0,33,12,0,33,0,0,0,33,21,0,0,33,0,33,0,33,33,34,33,33,0,33,0,33,0,33,33,33,33,33,33,33,33,34,0,33,33,33,33,0,0,0,65,33,91,0,33,33,33,33,0,0,33,33,0,0,0,0,33,33,58,0,0,0,0,33,33,33,0,0,0,0,0,16,33,33,34,0,33,0,40,33,33,0,0,33,0,0,0,33,33,33,33,33,33,0,33,29,0,0,33,34,0,0,0,0,0,33,33,0,33,33,33,0,0,0,0,0,0,0,0,0,0,0,0,0,0,0,0,0,0,0,0,0,0,0,0,0,0,0,0,0,0,0,0,0,0,0,0,0,0,0,0,0,0,0,0,0,0,0,0,0,0,0,0,0,0,0,0,0,0,0,0,0,0,0,0,0,0,0,0,0,0,0,0,0,0,0,0,0,0,0,0,0,0,0,0,0,0,0,0,0,0,0,0,0,0,0,0,0,0,0,0,0,0,0,0,0,0,0,0,0,0,0,0,0,0,0,0,0,0,0,0,0,0,0,0,0,0,0,0,0,0,0,0,0,0,0,0,0,0,0,0,0,0,0,0,0,0,0,0,0,0,0,0,0,0,0,0,0,0,0,0,0,0,0,0,0,0,0,0,0,0,0,0,0,0,0,0,0,0,0,0,0,0,0,0,0,0,0,0,0,0,0,0,0,0,0,0,0,0,0,0,0,0,0,0,0,0,0,0,0,0,0,0,0,0,0,0,0,0,0,0,0,0,0,0,0,0,0,0,0,0,0,0,0,0,0,0,0,0,0,0,0,0,0,0,0,0,0,0,0,0,0,0,0,0,0,0,0,0,0,0,0,0,0,0,0,0,0,0,0,0,0,0,0,0],"split_type":[0,0,0,0,0,0,0,0,0,0,0,0,0,0,0,0,0,0,0,0,0,0,0,0,0,0,0,0,0,0,0,0,0,0,0,0,0,0,0,0,0,0,0,0,0,0,0,0,0,0,0,0,0,0,0,0,0,0,0,0,0,0,0,0,0,0,0,0,0,0,0,0,0,0,0,0,0,0,0,0,0,0,0,0,0,0,0,0,0,0,0,0,0,0,0,0,0,0,0,0,0,0,0,0,0,0,0,0,0,0,0,0,0,0,0,0,0,0,0,0,0,0,0,0,0,0,0,0,0,0,0,0,0,0,0,0,0,0,0,0,0,0,0,0,0,0,0,0,0,0,0,0,0,0,0,0,0,0,0,0,0,0,0,0,0,0,0,0,0,0,0,0,0,0,0,0,0,0,0,0,0,0,0,0,0,0,0,0,0,0,0,0,0,0,0,0,0,0,0,0,0,0,0,0,0,0,0,0,0,0,0,0,0,0,0,0,0,0,0,0,0,0,0,0,0,0,0,0,0,0,0,0,0,0,0,0,0,0,0,0,0,0,0,0,0,0,0,0,0,0,0,0,0,0,0,0,0,0,0,0,0,0,0,0,0,0,0,0,0,0,0,0,0,0,0,0,0,0,0,0,0,0,0,0,0,0,0,0,0,0,0,0,0,0,0,0,0,0,0,0,0,0,0,0,0,0,0,0,0,0,0,0,0,0,0,0,0,0,0,0,0,0,0,0,0,0,0,0,0,0,0,0,0,0,0,0,0,0,0,0,0,0,0,0,0,0,0,0,0,0,0,0,0,0,0,0,0,0,0,0,0,0,0,0,0,0,0,0,0,0,0,0,0,0,0,0,0,0,0,0,0,0,0,0,0,0,0,0,0,0,0,0,0,0,0,0,0,0,0,0,0,0,0,0,0,0,0,0,0,0,0,0,0,0,0,0,0,0,0,0,0,0,0,0,0,0,0,0,0,0,0,0,0,0,0,0,0,0,0,0,0,0,0,0,0,0,0,0,0,0,0,0,0,0,0,0,0,0,0,0,0,0,0,0,0,0,0,0,0,0,0,0,0,0,0,0,0,0,0,0,0,0,0,0,0,0,0,0,0,0,0,0,0,0,0,0,0,0,0,0,0,0,0,0,0,0,0,0,0,0,0,0,0,0,0,0,0,0,0,0,0,0,0,0,0,0,0,0,0,0,0,0,0,0,0,0,0,0,0,0,0,0,0,0,0,0,0,0,0,0,0,0,0,0,0,0,0,0,0,0,0,0,0,0,0,0,0,0,0,0,0,0,0,0,0,0,0,0,0,0,0,0,0,0,0,0,0,0,0,0,0,0,0,0,0,0,0,0,0,0,0,0,0,0,0,0,0,0,0,0,0,0,0,0,0,0,0,0,0,0,0,0,0,0,0,0,0,0,0,0,0,0,0,0,0,0,0,0,0,0,0,0,0,0,0,0,0,0,0,0,0,0,0,0,0,0,0,0,0,0,0,0,0,0,0,0,0,0,0,0,0,0,0,0,0,0,0,0,0,0,0,0,0],"sum_hessian":[5.143058E5,4.0201266E5,1.1229317E5,2.940884E5,1.0792425E5,1.276441E4,9.952876E4,3.3935016E4,2.6015339E5,7.2478643E3,1.0067638E5,6.698905E3,6.0655054E3,6.020985E4,3.931891E4,3.0118904E4,3.8161113E3,1.4705373E5,1.1309965E5,5.9135376E3,1.3343268E3,9.284522E4,7.83117E3,1.0356248E3,5.66328E3,1.043389E3,5.022116E3,4.610493E4,1.4104923E4,2.9435115E3,3.63754E4,2.8167393E3,2.7302164E4,1.006742E3,2.8093694E3,1.0025977E4,1.3702777E5,8.3614766E4,2.9484885E4,3.161199E3,2.7523386E3,4.1210706E2,9.2221967E2,7.841506E4,1.443015E4,4.9099756E3,2.9211946E3,9.4196564E2,9.36591E1,7.3088036E1,5.590192E3,8.911939E2,1.521951E2,4.2897227E3,7.323937E2,1.8760861E4,2.7344068E4,6.495024E3,7.6098984E3,2.0742775E1,2.9227688E3,5.415405E2,3.5833855E4,7.6351245E2,2.0532268E3,9.759464E3,1.7542701E4,4.9290943E1,9.5745105E2,1.7160059E3,1.0933635E3,2.715038E3,7.3109385E3,1.6426773E4,1.20600984E5,1.2440477E4,7.117429E4,1.28342295E4,1.6650656E4,1.00296906E3,2.15823E3,2.7096377E3,4.2700863E1,3.9192725E2,2.0179802E1,5.596179E2,3.6260178E2,9.728221E3,6.868684E4,4.272857E3,1.0157293E4,4.7671987E3,1.4277672E2,7.009932E2,2.2202012E3,3.0246375E2,6.395019E2,7.0236946E1,2.3422163E1,2.3505898E1,4.958214E1,3.9846274E3,1.6055645E3,3.4226883E2,5.4892505E2,6.3756813E1,8.8438286E1,2.5555482E2,4.0341677E3,6.709713E2,6.1422325E1,7.8884927E3,1.0872368E4,1.7600875E3,2.558398E4,3.642371E1,6.4586E3,5.1902437E3,2.4196548E3,1.7499747E3,1.1727941E3,4.661697E2,7.537084E1,1.0902868E4,2.493099E4,1.5385037E2,6.096621E2,1.3651826E2,1.9167085E3,7.804746E3,1.9547173E3,6.3565015E3,1.1186199E4,9.8365295E1,8.5908575E2,1.6818834E3,3.4122417E1,1.9616214E2,8.972014E2,2.6495232E3,6.551488E1,2.3999684E2,7.0709414E3,7.017534E3,9.409239E3,4.8063664E4,7.253732E4,6.128227E2,1.1827653E4,6.769005E4,3.4842454E3,1.0936687E4,1.8975424E3,3.3573364E3,1.329332E4,4.2735764E2,5.756114E2,1.5539012E3,6.0432874E2,9.6663324E2,1.7430045E3,2.5129141E2,1.4063583E2,5.357999E2,2.3817974E1,5.49084E1,3.0769336E2,2.2290352E3,7.4991855E3,5.593544E4,1.2751402E4,1.3146299E3,2.9582273E3,6.10919E3,4.0481033E3,1.01030646E3,3.7568923E3,5.330914E2,1.6790186E2,2.6370294E2,1.9564983E3,5.6324017E1,2.4613972E2,6.1090735E2,2.859453E1,2.7835442E1,4.24015E1,2.6084272E3,1.3762001E3,4.4157297E2,1.1639915E3,8.503359E1,2.5723523E2,1.6630234E2,3.826227E2,4.2969852E1,2.0786963E1,5.3609013E1,3.4829273E1,7.8155785E1,1.7739905E2,3.8958872E3,1.3828055E2,3.0913733E1,6.400576E2,6.699862E3,1.1886311E3,2.043729E2,1.0667995E4,1.4199323E3,3.4015533E2,3.251837E1,2.5551463E4,6.377899E1,6.3948213E3,5.0996353E3,9.0608505E1,4.3091995E2,1.988735E3,2.472885E1,1.7252458E3,9.391718E2,2.3362222E2,2.439189E2,2.2225081E2,5.5868813E1,1.9502031E1,2.3811508E1,1.0879057E4,1.5589291E4,9.341698E3,1.2217898E2,3.1671402E1,4.5594812E2,1.5371397E2,6.9888084E1,1.8468204E3,7.687842E3,1.1690446E2,1.8610643E3,9.365298E1,2.9985562E3,3.357945E3,5.6959946E3,5.490205E3,4.187589E1,5.6489403E1,6.452275E2,2.138583E2,1.4135532E3,2.683302E2,1.4745299E2,4.8709156E1,7.332804E1,8.2387335E2,1.4099985E2,2.5085232E3,2.9343674E1,3.6171204E1,1.429639E2,9.703296E1,6.5111396E3,5.5980206E2,6.9919067E3,2.5627522E1,3.6829363E3,5.726303E3,1.7197527E4,3.0866137E4,6.817762E4,4.359706E3,3.062392E2,3.0658347E2,7.0797715E3,4.7478823E3,3.9057938E4,2.8632105E4,2.1493022E3,1.3349432E3,6.1888994E3,4.7477876E3,1.2743312E3,6.232112E2,1.533752E3,1.8235845E3,1.0427088E4,2.866232E3,1.3796198E2,2.8939566E2,3.0178963E1,5.4543243E2,7.4899365E2,8.049076E2,5.212459E1,5.5220416E2,3.5221326E2,6.1442E2,1.053286E2,1.6376759E3,1.7744264E2,7.384878E1,6.836803E1,7.226781E1,6.3344387E1,4.7245557E2,2.5860222E1,2.8183313E2,1.3483025E3,8.807326E2,7.1635176E3,3.3566788E2,4.3902E4,1.203344E4,1.1631067E4,1.1203358E3,1.1159858E3,1.9864409E2,2.9265984E3,3.1628803E1,1.5331249E3,4.576065E3,1.4020894E3,2.646014E3,6.8543866E2,3.2486783E2,2.077802E2,3.5491123E3,3.5454462E2,1.7854677E2,1.4043983E2,2.7462013E1,1.747164E2,8.898654E1,1.0439908E2,1.8520992E3,3.062838E1,2.5695637E1,3.2541405E1,2.1359833E2,4.7734006E2,1.335673E2,6.479003E2,1.960527E3,5.937491E2,7.82451E2,3.4281134E2,9.876163E1,2.3655886E1,1.1403356E3,5.7240902E1,2.7792688E1,2.3057493E1,2.3417775E2,2.6553602E1,1.3974873E2,3.1241992E2,7.020278E1,2.8503447E1,2.5105566E1,5.7905273E1,2.025051E1,1.3242238E2,4.4976665E1,3.859824E3,3.6063198E1,2.950308E1,1.0877746E2,8.2588326E1,5.5746924E2,4.4683823E3,2.2314795E3,4.3082886E2,7.578023E2,2.132969E1,1.830432E2,5.56079E2,1.0111916E4,3.684731E2,1.0514591E3,2.929841E2,4.7171227E1,1.0574611E4,1.4976851E4,3.0008856E1,3.3770138E1,1.1744816E3,5.2203394E3,9.940689E2,4.1055664E3,1.2994804E2,3.0097192E2,5.21769E2,1.466966E3,1.6882982E3,3.694768E1,2.033846E2,7.3578723E2,1.5190193E2,8.172029E1,2.8837862E1,1.9341295E2,2.707577E1,2.8793041E1,1.5088071E3,9.370249E3,1.112464E4,4.4646514E3,3.0599204E3,6.281778E3,4.478184E1,7.739713E1,3.6812073E1,4.1913605E2,3.3325596E1,1.20388374E2,1.8046561E3,4.2164326E1,5.4841636E3,2.203678E3,2.9206268E1,8.769818E1,2.64682E1,1.8345961E3,5.5873558E1,3.7779423E1,2.6440442E2,2.7341516E3,1.8114075E2,3.1768044E3,3.8530078E3,1.8429866E3,3.2687637E1,5.4575176E3,2.201659E1,1.9859297E1,3.6871872E1,1.9617533E1,2.818041E2,3.6342334E2,5.0957527E1,1.6290077E2,2.1876848E1,1.3916764E3,2.2063914E2,4.7691044E1,4.6505684E1,1.009473E2,1.9567587E1,2.9141571E1,3.1984951E1,4.134309E1,7.938085E2,3.0064898E1,7.730379E1,6.369606E1,1.4218188E3,1.0867045E3,9.823211E1,4.473178E1,6.345844E1,3.3574516E1,4.4525983E2,6.0658794E3,1.996052E2,3.6019687E2,2.6150312E3,4.3768755E3,3.5232314E3,1.5970477E2,6.309739E2,5.095329E3,1.9051845E2,1.7007008E4,1.1162121E4,1.9704016E4,3.423727E4,3.3940348E4,1.4998518E3,2.8598542E3,6.603248E3,4.7652332E2,1.113869E3,3.6340132E3,2.9986477E3,3.605929E4,2.5688062E4,2.9440422E3,1.2507573E3,8.9854486E2,1.1189594E3,2.1598386E2,5.993129E3,1.9577061E2,2.6732954E3,2.074492E3,1.9353527E1,1.2549777E3,9.025864E1,5.329526E2,2.5598517E2,1.2777667E3,1.2094781E3,6.141064E2,3.4301775E3,6.9969106E3,2.1351895E3,7.310426E2,1.07111855E2,3.0850115E1,7.1533966E1,2.178617E2,4.015494E2,1.4388306E2,7.2453156E2,2.4462048E1,3.6642545E2,4.3848215E2,2.437695E1,2.774764E1,3.857368E2,1.6646738E2,1.7520659E2,1.7700667E2,4.33842E2,1.8057797E2,5.1600197E1,5.3728405E1,1.4299325E3,2.0774335E2,1.3661649E2,4.082615E1,3.715482E1,3.6693954E1,2.9944098E1,4.2323708E1,3.494185E1,2.8402542E1,3.1142427E1,4.413131E2,9.620579E1,1.8562737E2,6.1134296E2,7.3695953E2,4.3066003E2,4.5007254E2,6.437868E3,7.256496E2,3.4745926E4,9.156077E3,1.1355617E4,6.7782355E2,4.1570566E3,7.4740103E3,6.1340843E1,1.058995E3,6.7493506E2,4.4105075E2,2.8425154E3,8.408301E1,8.4853253E2,6.8459235E2,9.537664E2,3.6222983E3,1.537196E2,1.2483698E3,2.4300386E3,2.1597537E2,3.7511444E2,3.103242E2,2.4326427E2,8.160356E1,2.53058E1,1.824744E2,3.4842004E3,6.49117E1,2.9405838E1,3.251388E2,2.7223555E1,1.5132321E2,3.3343307E1,1.07096535E2,1.3692302E2,3.7793377E1,4.9580055E1,3.9406487E1,7.189039E1,3.2508694E1,1.8241272E3,2.7972027E1,1.0944957E2,1.0414876E2,3.043376E1,4.469063E2,1.1444589E2,1.9121414E1,5.9081295E1,5.888191E2,1.4309348E3,5.295921E2,5.580788E2,3.567024E1,6.667966E2,1.1565446E2,4.0653538E1,3.021578E2,8.6546454E2,2.74871E2,3.791609E1,1.9324814E1,1.0227225E2,1.319055E2,2.1540134E1,1.18208595E2,5.119852E1,2.612214E2,2.7478039E1,4.2724743E1,6.0324337E1,7.209804E1,2.224139E1,2.2735275E1,5.5673193E2,3.303092E3,1.4902782E2,4.0844144E2,2.0244354E1,4.4481377E3,1.8057731E3,4.2570645E2,2.813405E2,1.4948833E2,3.5187598E2,4.0592633E2,8.8287346E1,9.475586E1,2.5770148E2,2.983775E2,6.362585E2,9.475657E3,2.87063E2,8.141015E1,6.189291E2,4.3253006E2,8.683053E1,2.0615356E2,1.2618806E3,9.312731E3,1.886378E3,1.3090473E4,1.7176982E2,1.0027117E3,4.4818276E3,7.38512E2,8.1105E2,1.8301892E2,1.1830785E3,2.9224878E3,9.42084E1,3.5739647E1,2.581134E1,2.7516058E2,1.4104173E2,3.8072723E2,9.188797E2,5.4808624E2,1.9500666E1,1.6687975E3,2.6101102E2,4.747762E2,7.0634315E1,8.126762E1,1.423046E3,8.576122E1,1.7107605E3,7.659489E3,8.90107E3,2.2235696E3,4.306679E3,1.5797215E2,5.8009796E2,2.4798225E3,4.3354272E2,5.8482354E3],"tree_param":{"num_deleted":"0","num_feature":"98","num_nodes":"683","size_leaf_vector":"1"}},{"base_weights":[4.7712884E-4,-3.1017E-1,1.1681563E0,-4.6944144E-1,6.6204155E-3,6.862528E-1,1.2189683E0,2.249517E-2,-5.8511615E-1,5.37822E-1,-8.858971E-2,1.2800441E0,6.197971E-1,1.3060635E0,1.084116E0,-3.103428E-1,2.0513156E-1,3.7481767E-1,-6.2719536E-1,9.163529E-1,4.5711896E-1,1.5981866E-1,-2.422788E-1,-3.2848343E-2,1.3266459E0,4.5378032E-1,8.6689776E-1,1.3878245E0,1.2924381E0,1.4882088E0,1.0501682E0,4.7817355E-1,-4.1453844E-1,6.030134E-1,-4.324216E-2,1.473562E-1,1.0594482E0,-2.2001855E-2,-6.7518747E-1,1.354745E-1,9.4898075E-1,-3.1611872E-1,5.24123E-1,5.4623373E-2,3.9424023E-1,-1.6928756E-1,-7.402649E-1,2.3799865E-3,1.359512E0,-2.6729208E-1,4.956744E-1,1.5188413E0,8.232378E-1,1.361735E0,1.5747954E0,-1.5702771E-2,1.2932049E0,2.2180744E-2,1.4975777E0,7.8509337E-1,1.0658346E0,-2.9185516E-1,7.311687E-1,-5.108997E-1,5.696844E-1,7.750071E-1,2.2784454E-1,1.7602912E-1,-4.6728703E-1,-3.525357E-1,4.9354962E-1,-6.548995E-2,1.0863872E0,-6.232877E-1,3.4386995E-1,-7.7414256E-1,-4.8098582E-1,-2.1873622E-1,6.468642E-1,-2.1475185E-1,9.7609484E-1,-4.7963887E-1,1.2907515E0,2.7031638E-2,5.8129764E-1,-1.7208055E-1,7.486495E-1,3.0338509E-2,6.2349117E-1,5.579087E-1,-2.1563622E-1,-1.4854963E0,-3.877809E-1,2.207616E-2,1.3868225E0,3.3666125E-1,-1.9767306E0,6.49953E-1,2.3992784E-1,1.0789305E-1,1.6054629E0,2.7051944E-1,8.6937886E-1,1.5604063E-2,1.3652884E0,1.5278374E0,1.837021E-1,1.2781101E0,1.3769861E0,1.1250474E0,1.5097291E0,-3.7375423E-1,9.4588023E-1,1.1632465E0,1.026673E0,1.0432419E0,-1.1421373E0,9.95014E-1,3.2923925E-1,-5.793096E-1,9.180837E-2,-4.6202752E-1,8.1328315E-1,6.3521934E-1,1.0595939E0,5.982765E-1,-5.6793433E-1,4.5486695E-1,-1.7497359E-2,-1.3807924E0,-2.4132967E-1,-8.270873E-3,-9.401175E-1,4.5584515E-2,6.62913E-1,-2.2300205E-1,1.1304941E0,-8.6535937E-1,5.215916E-2,3.656263E-1,-1.5622135E0,-8.238398E-1,-1.4926292E-1,-3.9632548E-2,-6.601897E-1,-8.5639954E-1,1.6691988E0,7.784515E-1,1.2576082E0,1.0090442E0,-7.460027E-1,8.3636236E-1,1.6197106E0,-1.0410652E0,2.1874218E-1,-2.2565013E-1,5.8739483E-1,-6.0306007E-1,-4.016883E-2,8.631231E-1,3.0415863E-1,2.728499E-1,-1.3757886E0,9.9387735E-1,4.9715066E-1,-2.7623743E-1,6.672766E-1,-2.0106792E-1,-1.7043933E0,-7.201756E-1,-1.591903E0,7.295873E-2,-5.89639E-1,1.4875075E0,1.1837534E0,9.4240046E-1,-2.0680092E-1,-2.2144702E-1,-2.0097335E-1,-2.1391504E-1,6.8731856E-1,-1.1950467E0,3.3640605E-1,1.8001581E0,1.4210682E0,-2.03523E0,6.9924366E-1,9.969868E-1,6.686122E-2,1.4883357E0,1.2944723E0,1.5686496E0,7.4506365E-2,1.3009489E0,1.2062446E0,9.745896E-1,1.3967232E0,-1.3627115E-2,1.5707921E0,1.4576763E0,1.5777601E0,-2.1038778E0,7.190601E-1,1.088769E0,-4.383362E-1,9.442E-1,1.2279742E0,9.266797E-1,1.1545142E0,5.859292E-1,1.6784263E0,-2.626553E-1,-1.5382359E0,-2.0429806E-1,1.0578758E0,-5.055599E-1,7.82469E-1,-3.827399E-1,-1.0893059E0,-1.6898105E-1,1.397652E0,8.74057E-2,-2.1119194E-1,1.0696304E0,-5.3008306E-1,3.9224982E-1,1.032319E0,-2.250809E-1,1.0883514E0,1.1546929E0,3.164923E-2,-5.039602E-2,-1.8222066E0,8.743732E-1,3.0322146E-1,6.524887E-2,-1.161884E0,9.571147E-1,-1.6188651E0,2.3008206E-1,-6.300986E-1,-1.5620017E0,1.3519327E-1,-1.279678E0,1.1990423E0,1.3938181E-1,-2.1021338E-1,5.2660346E-1,1.2854788E0,-2.2191139E-1,1.1664609E0,-1.3530003E0,-5.575813E-1,-2.1205625E-1,7.2682554E-1,5.792978E-1,2.437935E-1,-2.1958074E-1,4.6927888E-2,-8.976969E-1,-6.025407E-1,-1.11329384E-1,-1.6374125E0,2.6382875E-1,-3.011665E-1,-1.23796955E-1,-7.277253E-1,9.9165276E-2,-2.2359087E-1,2.0236003E-1,1.6575927E-1,8.216078E-1,-9.5139647E-1,1.3855846E0,6.540718E-1,6.762131E-1,1.7340395E0,-9.154429E-1,9.614503E-1,1.6472927E-1,2.4837703E-3,1.5320106E-1,1.9051509E-1,-1.4005544E0,7.463765E-1,3.2066143E-1,-2.2568071E-1,-6.295103E-1,6.01406E-1,-1.0585176E0,-3.3720782E-1,-1.2522296E0,1.1647342E-3,9.9107397E-1,5.9757614E-1,-3.4664607E-1,7.396328E-1,-2.2616394E-2,7.33898E-1,-1.0181524E0,-2.074035E-1,1.0484288E0,-2.0908257E-1,7.105691E-1,-7.0808284E-2,-1.042225E0,4.424735E-1,7.161811E-1,-2.005357E-1,-3.7476733E-1,-8.1538156E-2,-1.8851188E0,4.0056375E-1,-1.2568296E0,5.886421E-1,-1.7638284E0,-1.2308977E0,-1.0889099E0,4.905898E-1,-6.830397E-1,9.2975837E-1,1.3607978E0,1.5916022E0,1.7639361E-1,1.0598297E0,1.3438518E0,4.850149E-1,7.3725176E-1,-4.3033558E-1,1.13676436E-1,-2.2040638E-1,8.476586E-1,1.264133E-1,1.8619508E0,1.775694E-1,1.2006695E-1,1.8228714E-1,-2.3916666E-1,-2.0037806E-1,-3.346596E-2,1.2757771E0,5.4705024E-1,1.053283E0,-5.87778E-1,5.639122E-1,1.3583803E0,1.5598512E0,9.3170476E-1,1.3293966E0,1.8012774E-1,1.4417453E0,1.2769326E0,1.3781228E0,-1.0989357E-1,1.2193714E0,1.4675034E0,-3.2536527E-3,1.5808525E0,1.3711044E0,1.8249317E-1,1.509468E-1,7.0083156E-2,1.4760327E0,1.7907357E-1,1.5212733E0,-2.4665175E-1,-2.0562467E-1,1.8028516E-1,-2.388739E-1,4.669116E-1,1.1779542E0,-2.1263254E-1,1.3388889E-1,1.4879037E0,8.081658E-1,1.3700501E0,1.1505511E0,7.887885E-1,1.064537E0,1.1751891E0,5.2050763E-1,1.2829192E-1,-2.1057245E-1,1.9838421E-1,1.5037772E-1,-1.1624181E-1,1.8786283E-1,-1.9338311E-1,-5.4164477E-2,1.2129824E-1,-2.0777039E-1,3.4461714E-2,-2.0337525E-1,-2.8439704E-3,1.4321807E-1,-1.691039E-1,-3.4986254E-2,-3.8714122E-2,-1.4835346E-1,2.0915652E-2,-1.964651E-1,1.8384963E-1,-1.9287196E-1,-2.0691563E-1,9.97167E-2,-2.0037152E-1,1.258091E-1,8.735336E-3,-2.1301362E-1,5.5184677E-2,-1.8770623E-1,-2.0796928E-1,1.2317106E-1,1.3378567E-1,6.9290556E-2,1.3574104E-1,-1.90185E-1,-1.4544728E-1,4.6341486E-2,-1.9302763E-1,4.821026E-2,-1.8887344E-1,-2.015434E-1,-5.5023648E-2,1.1028694E-1,-1.240091E-1,4.9820554E-2,-1.2680486E-1,1.8364897E-2,-4.958816E-4,-2.1642742E-1,1.4302063E-1,-2.0688524E-2,9.770219E-2,-1.942405E-1,-1.9527711E-1,4.346536E-2,-1.2036872E-2,-1.3244532E-1,-2.0529678E-1,6.637327E-2,-4.8696954E-2,5.5799827E-2,-2.438001E-2,-1.6962257E-1,9.180615E-2,1.6696632E-1,-1.8218366E-2,7.50151E-2,-3.9427035E-2,6.994926E-2,1.5096998E-1,1.6080648E-2,-2.1688609E-1,1.4709903E-1,1.7288195E-1,1.2036139E-1,-1.5711677E-1,-2.5253125E-2,-9.0043895E-2,-1.1289405E-2,-5.670189E-2,3.3834465E-2,3.6220785E-2,1.650145E-1,1.7273877E-2,8.255913E-2,9.710571E-2,9.572402E-3,-1.1104453E-1,-8.715341E-2,-5.7832547E-2,-1.5496832E-1,-3.8867746E-2,1.0192971E-2,-1.1566327E-1,-2.0176573E-1,-5.201959E-2,3.6974728E-2,-3.764596E-2,1.0130893E-1,-1.07992776E-1,1.5221926E-3,-5.2418232E-2,-9.216084E-2,1.9383607E-2,1.02712154E-1,7.203847E-2,-2.1699445E-1,1.6210008E-2,1.5224475E-1,-2.2410242E-1,1.1248519E-1,1.4841346E-1,-1.9812676E-1,2.2161311E-1,1.5421145E-1,-1.9597575E-1,-7.470038E-2,1.8181416E-1,-3.338916E-2,-1.2205716E-1,-2.3100744E-1,1.2663627E-1,3.8912386E-2,-2.253615E-1,4.4530507E-2,-2.156495E-1,3.216219E-2,6.1031558E-2,1.1124715E-1,-1.4486757E-1,-6.9750756E-2,-7.272769E-2,1.0260175E-2,-6.3885696E-2,-1.8972217E-1,-9.189961E-2,3.897736E-3,-2.1144877E-1,1.09660484E-1,-2.3414138E-1,7.9183444E-2,-1.5622488E-1,2.6760023E-2,1.01859964E-1,-4.1044287E-2,-1.0203556E-1,3.9865926E-2,9.253271E-2,-8.090285E-2,-1.7496884E-1,6.1989505E-2,7.278596E-2,1.431246E-1,1.2468531E-1,6.1332557E-2,-7.311665E-2,6.0172625E-2,4.543501E-2,-1.5943252E-1,8.976398E-2,-8.700889E-2,-1.025439E-1,8.020705E-2,4.938801E-2,-2.1528995E-1,-1.22301914E-1,-3.1399738E-2,-1.9734731E-2,2.9727088E-2,-2.0273432E-1,-2.1834882E-1,8.142446E-2,1.1287817E-2,1.4835782E-1,-2.0572363E-1,1.9540273E-1,-1.9888824E-1,-1.9356203E-1,5.5506304E-2,-2.057853E-1,-4.8447702E-2,1.10644214E-1,-2.01454E-1,1.0118536E-1,-1.1384855E-1,-1.0096454E-1,3.4654208E-2,-2.0299302E-1,1.6485226E-1,1.6267161E-1,9.645044E-2,1.4420654E-1,1.7608228E-1,8.637771E-2,1.691667E-1,1.7225437E-1,1.01078756E-1,-2.2478114E-1,1.6443563E-1,7.15459E-2,1.6354547E-1,-2.08516E-1,6.9126114E-2,1.7915986E-2,1.3299392E-1,-2.2116928E-1,1.838808E-2,2.0972002E-1,1.87618E-1,1.2261209E-1,-2.4057868E-1,1.9031738E-1,-2.6273413E-2,-2.212081E-1,9.1503754E-2,1.306414E-1,9.677915E-2,-2.0864516E-1,5.426727E-4,1.263961E-1,-7.345265E-2,1.1389409E-1,1.557164E-1,1.0742836E-1,1.6966683E-1,1.507393E-1,6.92455E-2,1.3872075E-1,1.7325301E-1,6.351547E-2,1.6830763E-1,1.7930967E-1,1.3719271E-1,1.5038127E-1,7.007754E-2,-2.3166934E-1,1.2576245E-1,1.03471965E-1,1.3494222E-1,1.3898084E-1,1.7740229E-1,-2.082424E-1,6.311512E-2,1.7674035E-1,1.5200275E-1,1.405951E-1,1.5474464E-1,1.5041837E-1,1.6890065E-1,1.3540848E-1,1.6622409E-1,-2.4635527E-1,9.427305E-2,1.1021557E-1,1.7673497E-1,8.2978725E-2,1.6763777E-1,-1.0396256E-1,9.6962206E-2,1.42813E-1,1.723692E-1,1.4049636E-1,1.07968934E-1,8.677415E-2,-2.4749239E-1,1.2516707E-1,1.3199828E-2,1.4121288E-1,1.2102993E-1,-1.0569797E-1,1.3243906E-1],"categories":[],"categories_nodes":[],"categories_segments":[],"categories_sizes":[],"default_left":[0,1,0,0,0,0,0,0,0,0,0,0,0,0,0,0,0,1,0,0,0,0,0,0,0,0,0,0,0,0,0,0,0,0,0,0,0,0,1,0,0,0,0,0,0,0,0,0,0,0,0,0,0,0,0,0,0,0,0,0,0,0,0,0,0,0,0,0,0,0,0,0,0,0,0,0,0,0,0,0,0,0,0,0,0,0,0,0,0,0,0,0,0,0,0,0,0,0,0,0,0,0,0,0,0,0,0,0,0,0,0,0,0,0,0,0,0,0,0,0,0,0,0,0,0,0,0,0,0,0,0,0,0,0,0,0,0,0,0,0,0,0,0,0,0,0,0,0,0,0,0,0,0,0,0,0,0,0,0,0,0,1,0,0,0,0,0,0,0,0,1,0,0,0,0,0,0,0,0,0,0,0,0,0,0,0,0,0,0,0,0,0,0,1,0,0,0,0,0,0,0,0,0,0,0,0,0,0,0,0,0,0,0,0,0,0,0,0,0,0,0,0,0,0,0,0,0,0,0,0,0,0,0,0,0,0,0,0,0,0,0,0,0,0,0,0,0,0,0,0,0,0,0,0,0,0,0,0,0,0,0,0,0,0,0,0,0,0,0,0,0,0,0,0,0,0,0,0,0,0,0,0,0,0,0,0,0,0,0,0,0,0,0,0,0,0,0,0,0,0,0,0,0,0,0,0,0,0,0,0,0,0,0,0,0,0,0,0,0,0,0,0,0,0,0,0,0,0,0,0,0,1,0,0,0,0,0,0,0,0,0,0,0,0,0,0,0,0,0,0,0,0,0,0,0,0,0,0,0,0,0,0,0,0,0,0,0,0,0,0,0,0,0,0,0,0,0,0,0,0,0,0,0,0,0,0,0,0,0,0,0,0,0,0,0,0,0,0,0,0,0,0,0,0,0,0,0,0,0,0,0,0,0,0,0,0,0,0,0,0,0,0,0,0,0,0,0,0,0,0,0,0,0,0,0,0,0,0,0,0,0,0,0,0,0,0,0,0,0,0,0,0,0,0,0,0,0,0,0,0,0,0,0,0,0,0,0,0,0,0,0,0,0,0,0,0,0,0,0,0,0,0,0,0,0,0,0,0,0,0,0,0,0,0,0,0,0,0,0,0,0,0,0,0,0,0,0,0,0,0,0,0,0,0,0,0,0,0,0,0,0,0,0,0,0,0,0,0,0,0,0,0,0,0,0,0,0,0,0,0,0,0,0,0,0,0,0,0,0,0,0,0,0,0,0,0,0,0,0,0,0,0,0,0,0,0,0,0,0,0,0,0,0,0,0,0,0,0,0,0,0,0,0,0,0,0,0,0,0,0,0,0,0,0,0,0,0,0,0,0,0,0,0,0,0,0,0,0,0,0,0,0,0,0,0,0,0,0,0,0,0,0,0,0,0,0,0,0,0,0,0,0,0,0,0,0,0,0,0,0,0,0,0,0,0,0,0,0,0,0,0,0,0],"id":2,"left_children":[1,3,5,7,9,11,13,15,17,19,21,23,25,27,29,31,33,35,37,39,41,43,45,-1,47,49,51,53,55,57,59,61,63,65,67,69,71,73,75,77,79,81,83,85,87,89,91,-1,93,95,97,99,101,103,105,-1,107,-1,109,111,113,115,117,119,121,123,125,127,129,131,133,-1,135,137,139,141,143,-1,145,-1,147,149,151,153,155,157,159,161,163,165,167,169,171,-1,173,175,177,179,181,-1,183,185,187,-1,189,191,-1,193,195,197,199,201,203,205,207,209,211,213,215,217,219,221,223,225,227,229,231,233,235,237,239,241,243,245,247,-1,249,251,253,255,257,259,261,263,265,267,269,271,273,275,277,279,281,283,285,-1,287,289,291,293,295,297,299,301,303,305,307,309,311,313,315,317,319,321,323,325,-1,-1,-1,-1,327,329,331,333,335,337,339,341,343,345,347,349,-1,351,353,355,357,-1,359,361,363,365,367,369,371,373,375,377,379,381,383,385,387,-1,389,391,393,395,397,399,401,403,-1,405,407,409,411,-1,413,415,417,419,421,423,425,427,429,431,433,435,437,439,441,443,445,447,-1,449,451,453,455,457,459,461,463,465,467,-1,-1,469,471,473,475,477,479,481,483,-1,-1,-1,-1,485,487,489,491,493,495,497,499,-1,-1,-1,-1,501,503,505,-1,507,509,511,513,515,517,519,521,523,525,527,529,531,-1,533,-1,535,537,539,541,543,545,547,549,551,553,555,557,559,561,563,565,567,569,571,573,-1,575,577,579,581,583,-1,-1,585,587,589,-1,-1,-1,-1,-1,591,593,595,597,599,601,603,605,607,609,-1,611,613,615,617,619,621,623,625,627,-1,-1,-1,629,-1,631,-1,-1,-1,-1,633,635,-1,-1,637,639,641,643,645,647,649,651,-1,-1,-1,-1,-1,-1,-1,-1,-1,-1,-1,-1,-1,-1,-1,-1,-1,-1,-1,-1,-1,-1,-1,-1,-1,-1,-1,-1,-1,-1,-1,-1,-1,-1,-1,-1,-1,-1,-1,-1,-1,-1,-1,-1,-1,-1,-1,-1,-1,-1,-1,-1,-1,-1,-1,-1,-1,-1,-1,-1,-1,-1,-1,-1,-1,-1,-1,-1,-1,-1,-1,-1,-1,-1,-1,-1,-1,-1,-1,-1,-1,-1,-1,-1,-1,-1,-1,-1,-1,-1,-1,-1,-1,-1,-1,-1,-1,-1,-1,-1,-1,-1,-1,-1,-1,-1,-1,-1,-1,-1,-1,-1,-1,-1,-1,-1,-1,-1,-1,-1,-1,-1,-1,-1,-1,-1,-1,-1,-1,-1,-1,-1,-1,-1,-1,-1,-1,-1,-1,-1,-1,-1,-1,-1,-1,-1,-1,-1,-1,-1,-1,-1,-1,-1,-1,-1,-1,-1,-1,-1,-1,-1,-1,-1,-1,-1,-1,-1,-1,-1,-1,-1,-1,-1,-1,-1,-1,-1,-1,-1,-1,-1,-1,-1,-1,-1,-1,-1,-1,-1,-1,-1,-1,-1,-1,-1,-1,-1,-1,-1,-1,-1,-1,-1,-1,-1,-1,-1,-1,-1,-1,-1,-1,-1,-1,-1,-1,-1,-1,-1,-1,-1,-1,-1,-1,-1,-1,-1,-1,-1,-1,-1,-1,-1,-1,-1,-1,-1,-1,-1,-1,-1,-1,-1,-1,-1,-1,-1,-1,-1,-1,-1,-1,-1,-1,-1,-1,-1,-1,-1,-1,-1,-1,-1,-1,-1,-1,-1,-1,-1,-1,-1],"loss_changes":[1.8441262E5,2.0261148E4,2.6158438E3,1.520591E4,6.79493E3,4.0219727E2,1.1350469E3,3.09251E3,8.739E3,6.2384814E2,4.349549E3,7.597827E1,3.759756E2,6.5421875E1,5.203008E2,1.4810043E3,3.2463247E3,1.4148752E3,6.0196406E3,9.1296875E1,8.722146E2,1.0738252E3,2.558354E3,0E0,4.25083E1,1.6574597E2,1.0491919E2,4.093457E1,5.5695312E1,3.511328E1,1.4524219E2,4.100408E2,1.5100935E3,8.1457764E2,1.8805934E3,1.180449E3,1.0193872E2,3.3504922E3,3.6902812E3,1.5979698E2,2.7472998E2,3.529693E2,4.401626E2,4.729505E3,1.1251475E3,2.0690906E3,2.3634219E3,0E0,3.0468994E1,3.1149432E2,2.0441931E2,1.0333374E1,8.794507E1,3.1635742E1,6.063965E0,0E0,6.3640625E1,0E0,1.3147949E1,3.6414258E2,1.2601953E2,5.909882E2,1.6789966E2,5.9800903E2,3.5704956E2,3.443662E2,1.1701885E3,7.194784E2,1.4229518E3,5.644509E2,3.056624E2,0E0,3.1035303E2,9.421885E2,3.92927E2,3.9503828E3,5.126744E3,0E0,1.7991823E2,0E0,1.898855E2,4.834161E2,1.849414E1,3.2750748E2,2.2658154E2,1.2880801E3,3.76521E2,1.7779999E3,3.8722852E2,3.3571033E2,1.2518286E3,2.3514697E2,5.682578E2,0E0,1.9387451E1,3.0362415E2,6.614075E-1,3.1799756E2,2.7024048E2,0E0,7.098236E0,2.637485E2,3.26104E2,0E0,6.3948242E1,2.5450073E1,0E0,6.9953125E1,6.0916016E1,5.205136E1,1.0004395E1,4.506695E2,3.395155E2,1.3425293E2,3.0120117E2,5.878148E1,1.1062338E2,1.7388416E2,2.3787767E2,1.3055815E3,5.039689E2,2.2310736E2,3.958562E2,5.601067E2,2.581936E2,8.5383484E2,8.183158E2,3.4748596E2,7.456493E2,7.612378E2,1.0130877E3,3.9299472E2,7.491487E2,2.0690279E2,2.4818835E2,0E0,1.07191895E2,6.365747E2,2.7128146E2,2.436919E2,1.00792175E2,1.9259844E3,5.2929407E2,1.4858212E3,1.6699727E3,1.02328186E2,1.9216003E0,1.5000488E2,1.086189E2,4.4653778E1,2.993302E2,2.9220753E1,2.0669556E0,1.5665143E2,3.19131E2,0E0,2.3652344E2,6.4288086E2,8.696655E2,1.9992871E2,4.2995535E2,6.059671E2,1.49193E2,3.367329E2,7.480824E2,2.3509221E2,1.3816528E2,1.1865283E3,2.1312903E2,2.4828493E2,1.5737158E2,9.0320984E2,6.0307935E2,8.357544E0,1.7585358E1,3.2150528E1,0E0,0E0,0E0,0E0,1.7802039E2,2.3386742E2,1.9621837E2,9.1049194E-1,8.398636E0,1.3427429E0,9.52528E1,6.9548096E1,1.4260968E2,2.489502E1,5.896582E1,8.918945E0,0E0,5.9953125E1,1.7785352E2,1.7361475E2,3.455078E1,0E0,1.3958893E0,2.3656006E1,5.515625E0,3.3072205E0,4.0637305E2,8.613721E1,4.1260577E2,1.5988257E2,8.0418945E1,2.513291E2,1.354375E2,1.8026552E2,3.8013458E0,1.615648E2,5.7032043E1,0E0,1.8143152E2,2.514556E2,1.7919994E2,6.549088E2,7.516655E2,7.375598E2,2.3888217E2,3.3210944E2,0E0,2.6815015E2,1.6280849E2,9.09726E2,7.0277124E2,0E0,1.8935132E2,4.05765E2,7.350498E2,7.704267E2,1.1741943E0,2.9410706E2,9.196508E2,9.524516E2,5.1671423E2,5.354563E1,5.609678E2,8.769407E2,9.360834E2,1.10085724E2,3.6014667E2,2.721239E2,1.7074799E1,1.8084459E2,0E0,2.5867224E2,6.6614685E1,1.6185886E2,4.8724854E1,1.8587671E2,3.2500604E2,1.7962283E2,1.3418867E2,2.6349927E2,6.0613916E2,0E0,0E0,1.0462891E3,1.6493193E3,4.6714648E2,3.0323242E1,5.065711E2,5.8929474E2,6.230554E2,1.2446094E3,0E0,0E0,0E0,0E0,1.6214465E2,8.412058E1,3.367749E1,2.6090283E2,2.22763E2,5.6426544E0,1.8934589E2,8.599103E1,0E0,0E0,0E0,0E0,4.0512634E1,6.686533E0,2.862885E2,0E0,2.0055508E2,2.1420703E2,2.2811475E2,4.8702505E2,1.9051581E2,4.990287E2,2.8102563E2,7.1680945E2,3.976361E2,2.0693158E2,9.7869025E2,3.1602167E2,4.4360092E2,0E0,2.1390063E2,0E0,2.8424536E2,6.414024E2,1.313314E2,1.0689459E2,1.3474731E2,2.0524115E2,1.4841509E3,1.2212816E3,6.212158E-1,4.6238575E0,4.269268E2,3.0484464E2,1.0919336E2,4.315371E2,8.069956E2,9.43251E2,1.010562E3,4.1245547E2,1.9387207E1,3.3754272E0,0E0,3.260443E1,9.496292E0,2.1925174E2,1.7777942E2,2.1937703E2,0E0,0E0,1.3894748E2,1.23677734E2,6.667328E-1,0E0,0E0,0E0,0E0,0E0,2.5433409E2,9.331001E1,2.3864798E2,5.998242E1,1.5091467E2,1.879292E2,2.3984497E1,1.0278809E1,5.5221527E1,5.2912598E1,0E0,3.0867432E1,6.667578E1,7.732129E1,2.6404218E2,7.899805E1,7.5547485E0,1.370608E2,8.535889E0,2.7435547E1,0E0,0E0,0E0,1.1452148E1,0E0,3.28833E0,0E0,0E0,0E0,0E0,2.1823859E2,9.827405E1,0E0,0E0,1.9735596E1,2.737251E2,2.8006836E1,1.07239746E2,2.938169E2,5.8566113E2,7.2543945E1,3.460918E2,0E0,0E0,0E0,0E0,0E0,0E0,0E0,0E0,0E0,0E0,0E0,0E0,0E0,0E0,0E0,0E0,0E0,0E0,0E0,0E0,0E0,0E0,0E0,0E0,0E0,0E0,0E0,0E0,0E0,0E0,0E0,0E0,0E0,0E0,0E0,0E0,0E0,0E0,0E0,0E0,0E0,0E0,0E0,0E0,0E0,0E0,0E0,0E0,0E0,0E0,0E0,0E0,0E0,0E0,0E0,0E0,0E0,0E0,0E0,0E0,0E0,0E0,0E0,0E0,0E0,0E0,0E0,0E0,0E0,0E0,0E0,0E0,0E0,0E0,0E0,0E0,0E0,0E0,0E0,0E0,0E0,0E0,0E0,0E0,0E0,0E0,0E0,0E0,0E0,0E0,0E0,0E0,0E0,0E0,0E0,0E0,0E0,0E0,0E0,0E0,0E0,0E0,0E0,0E0,0E0,0E0,0E0,0E0,0E0,0E0,0E0,0E0,0E0,0E0,0E0,0E0,0E0,0E0,0E0,0E0,0E0,0E0,0E0,0E0,0E0,0E0,0E0,0E0,0E0,0E0,0E0,0E0,0E0,0E0,0E0,0E0,0E0,0E0,0E0,0E0,0E0,0E0,0E0,0E0,0E0,0E0,0E0,0E0,0E0,0E0,0E0,0E0,0E0,0E0,0E0,0E0,0E0,0E0,0E0,0E0,0E0,0E0,0E0,0E0,0E0,0E0,0E0,0E0,0E0,0E0,0E0,0E0,0E0,0E0,0E0,0E0,0E0,0E0,0E0,0E0,0E0,0E0,0E0,0E0,0E0,0E0,0E0,0E0,0E0,0E0,0E0,0E0,0E0,0E0,0E0,0E0,0E0,0E0,0E0,0E0,0E0,0E0,0E0,0E0,0E0,0E0,0E0,0E0,0E0,0E0,0E0,0E0,0E0,0E0,0E0,0E0,0E0,0E0,0E0,0E0,0E0,0E0,0E0,0E0,0E0,0E0,0E0,0E0,0E0,0E0,0E0,0E0,0E0,0E0,0E0,0E0,0E0,0E0,0E0,0E0,0E0,0E0,0E0,0E0,0E0,0E0,0E0,0E0,0E0,